{"learner":{"attributes":{"scikit_learn":"{\"_estimator_type\": \"classifier\"}"},"feature_names":["distance_from_home","distance_from_last_transaction","ratio_to_median_purchase_price","repeat_retailer","used_chip","used_pin_number","online_order"],"feature_types":["float","float","float","float","float","float","float"],"gradient_booster":{"model":{"gbtree_model_param":{"num_parallel_tree":"1","num_trees":"100"},"iteration_indptr":[0,1,2,3,4,5,6,7,8,9,10,11,12,13,14,15,16,17,18,19,20,21,22,23,24,25,26,27,28,29,30,31,32,33,34,35,36,37,38,39,40,41,42,43,44,45,46,47,48,49,50,51,52,53,54,55,56,57,58,59,60,61,62,63,64,65,66,67,68,69,70,71,72,73,74,75,76,77,78,79,80,81,82,83,84,85,86,87,88,89,90,91,92,93,94,95,96,97,98,99,100],"tree_info":[0,0,0,0,0,0,0,0,0,0,0,0,0,0,0,0,0,0,0,0,0,0,0,0,0,0,0,0,0,0,0,0,0,0,0,0,0,0,0,0,0,0,0,0,0,0,0,0,0,0,0,0,0,0,0,0,0,0,0,0,0,0,0,0,0,0,0,0,0,0,0,0,0,0,0,0,0,0,0,0,0,0,0,0,0,0,0,0,0,0,0,0,0,0,0,0,0,0,0,0],"trees":[{"base_weights":[-5.4487354E-1,-9.9881744E-1,3.467266E0,-1.1405029E0,1.6456438E0,-2.8136104E-1,5.4865894E0,-1.1849118E0,1.6448786E0,-1.0791955E0,3.1137323E0,-5.7589114E-1,5.331687E0,1.862116E0,-8.926804E-1,-3.575995E-1,4.259093E-1,-1.1836033E0,3.1283166E0,-1.1772047E0,4.555839E0,5.3581014E0,-1.0854919E0,3.091318E0,-1.0945926E0,5.9998956E0,-1.0764775E0,-1.1078463E0,3.3603153E0,-9.645702E-1,1.1882029E0,-3.56884E-1,1.4817318E-1,5.114216E0,-4.0862566E-1,-3.573923E-1,1.7483923E0,5.161179E0,-2.6442477E-1,6.057639E0,-1.1713912E0,-1.1764175E0,4.709256E0,5.4505854E0,-1.1175345E0,-3.5749015E-1,5.1478095E0,3.88618E0,1.8507209E0,-3.3761644E-1,-4.1611455E-2,-1.1814775E0,4.2172656E0,1.7662413E0,-1.0320415E0,1.442685E-1,-3.547031E-1,4.382877E-1,-3.4459323E-1,1.7485834E0,-3.4716973E-1,1.47416E0,-3.5341027E-1,6.440787E-1,7.6689683E-3,9.589586E-1,1.7344438E0,1.2605896E0,1.8613417E0,-3.5583383E-1,2.0985314E-1,-3.572775E-1,4.6494845E-1,1.6275543E0,-2.3394582E-1,1.8552928E0,-3.4565097E-1,-3.5539156E-1,8.507156E-1,1.7026501E0,-2.8284994E-1,1.0254472E-1,1.2379922E0,-3.570778E-1,2.7099165E-1,1.6090634E0,1.1478593E-1,-3.2927072E-1,-4.1611455E-2],"categories":[],"categories_nodes":[],"categories_segments":[],"categories_sizes":[],"default_left":[0,0,0,0,0,0,0,0,0,0,0,0,0,0,0,0,0,0,0,0,0,0,0,0,0,0,0,0,0,0,0,0,0,0,0,0,0,0,0,0,0,0,0,0,0,0,0,0,0,0,0,0,0,0,0,0,0,0,0,0,0,0,0,0,0,0,0,0,0,0,0,0,0,0,0,0,0,0,0,0,0,0,0,0,0,0,0,0,0],"id":0,"left_children":[1,3,5,7,9,11,13,15,17,19,21,23,25,-1,27,-1,29,31,33,35,37,39,41,43,45,47,49,51,53,55,57,-1,-1,59,61,-1,63,65,-1,67,69,71,73,75,77,-1,79,81,-1,-1,-1,83,85,-1,87,-1,-1,-1,-1,-1,-1,-1,-1,-1,-1,-1,-1,-1,-1,-1,-1,-1,-1,-1,-1,-1,-1,-1,-1,-1,-1,-1,-1,-1,-1,-1,-1,-1,-1],"loss_changes":[1.9690025E5,3.6391336E4,8.3182234E4,1.1404547E4,1.9762297E4,6.3646455E3,3.2828797E4,1.0362656E3,6.0754507E3,9.6091724E2,3.0260463E4,6.9598027E3,8.283657E2,0E0,6.6771094E2,0E0,4.231777E2,5.6141357E0,6.671454E3,7.228174E1,1.02578735E2,9.563516E3,5.951145E2,4.508569E3,1.947408E3,3.823584E1,7.141323E-1,2.760782E2,3.9668036E2,4.5123077E1,1.6588266E2,0E0,0E0,2.7314785E3,1.40777E3,0E0,5.827675E0,1.4357483E1,0E0,4.88875E2,6.4289856E0,4.5450195E1,7.294812E1,1.4155869E3,4.6786026E1,0E0,1.6361682E2,1.1880356E1,0E0,0E0,0E0,1.3575012E1,4.0358963E1,0E0,6.4988995E-1,0E0,0E0,0E0,0E0,0E0,0E0,0E0,0E0,0E0,0E0,0E0,0E0,0E0,0E0,0E0,0E0,0E0,0E0,0E0,0E0,0E0,0E0,0E0,0E0,0E0,0E0,0E0,0E0,0E0,0E0,0E0,0E0,0E0,0E0],"parents":[2147483647,0,0,1,1,2,2,3,3,4,4,5,5,6,6,7,7,8,8,9,9,10,10,11,11,12,12,14,14,16,16,17,17,18,18,19,19,20,20,21,21,22,22,23,23,24,24,25,25,26,26,27,27,28,28,29,29,30,30,33,33,34,34,36,36,37,37,39,39,40,40,41,41,42,42,43,43,44,44,46,46,47,47,51,51,52,52,54,54],"right_children":[2,4,6,8,10,12,14,16,18,20,22,24,26,-1,28,-1,30,32,34,36,38,40,42,44,46,48,50,52,54,56,58,-1,-1,60,62,-1,64,66,-1,68,70,72,74,76,78,-1,80,82,-1,-1,-1,84,86,-1,88,-1,-1,-1,-1,-1,-1,-1,-1,-1,-1,-1,-1,-1,-1,-1,-1,-1,-1,-1,-1,-1,-1,-1,-1,-1,-1,-1,-1,-1,-1,-1,-1,-1,-1],"split_conditions":[4.0402355E0,9.8580986E1,1E0,4.7992798E1,1E0,9.8580986E1,1E0,3.9407883E0,1E0,4.7992798E1,1E0,1E0,1E0,1.862116E0,9.8580986E1,-3.575995E-1,1E0,3.9407883E0,1E0,3.9407883E0,1E0,1E0,4.7992798E1,1E0,4.7992798E1,1.0388904E2,1.0680099E1,5.8973557E1,1E0,1.8834883E0,1E0,-3.56884E-1,1.4817318E-1,1E0,1E0,-3.573923E-1,2.6083868E0,5.8973557E1,-2.6442477E-1,1.0388904E2,3.9407883E0,3.9407883E0,1E0,1E0,4.7992798E1,-3.5749015E-1,1E0,5.55897E-2,1.8507209E0,-3.3761644E-1,-4.1611455E-2,4.7992798E1,1E0,1.7662413E0,1.2755797E1,1.442685E-1,-3.547031E-1,4.382877E-1,-3.4459323E-1,1.7485834E0,-3.4716973E-1,1.47416E0,-3.5341027E-1,6.440787E-1,7.6689683E-3,9.589586E-1,1.7344438E0,1.2605896E0,1.8613417E0,-3.5583383E-1,2.0985314E-1,-3.572775E-1,4.6494845E-1,1.6275543E0,-2.3394582E-1,1.8552928E0,-3.4565097E-1,-3.5539156E-1,8.507156E-1,1.7026501E0,-2.8284994E-1,1.0254472E-1,1.2379922E0,-3.570778E-1,2.7099165E-1,1.6090634E0,1.1478593E-1,-3.2927072E-1,-4.1611455E-2],"split_indices":[2,0,6,1,6,0,5,2,6,1,4,3,5,0,0,0,6,2,4,2,5,5,1,4,1,0,1,1,4,0,5,0,0,5,3,0,1,1,0,0,2,2,5,5,1,0,5,1,0,0,0,1,4,0,1,0,0,0,0,0,0,0,0,0,0,0,0,0,0,0,0,0,0,0,0,0,0,0,0,0,0,0,0,0,0,0,0,0,0],"split_type":[0,0,0,0,0,0,0,0,0,0,0,0,0,0,0,0,0,0,0,0,0,0,0,0,0,0,0,0,0,0,0,0,0,0,0,0,0,0,0,0,0,0,0,0,0,0,0,0,0,0,0,0,0,0,0,0,0,0,0,0,0,0,0,0,0,0,0,0,0,0,0,0,0,0,0,0,0,0,0,0,0,0,0,0,0,0,0,0,0],"sum_hessian":[1.0810764E5,9.7119984E4,1.0987655E4,9.2181625E4,4.938357E3,3.8470103E3,7.1406445E3,9.0735555E4,1.4460748E3,1.7291816E3,3.2091753E3,3.6560652E3,1.9094511E2,6.416053E3,7.2459143E2,9.033839E4,3.9716043E2,4.975654E2,9.485094E2,1.7003981E3,2.8783659E1,2.091207E3,1.1179681E3,4.5243048E2,3.2036348E3,1.7297223E2,1.7972895E1,6.904024E2,3.418904E1,1.4053993E2,2.566205E2,4.9607892E2,1.48648E0,6.0715955E2,3.4134985E2,1.6928304E3,7.5675344E0,2.5945833E1,2.8378255E0,1.8889108E3,2.0229642E2,1.1014817E3,1.6486414E1,2.897285E2,1.62702E2,3.1553916E3,4.8243034E1,1.4594531E1,1.5837769E2,1.6891819E1,1.0810764E0,6.817538E2,8.648611E0,2.1486393E1,1.2702647E1,1.8243164E1,1.2229677E2,2.3013414E2,2.6486372E1,5.4513275E2,6.2026756E1,4.2432247E1,2.9891763E2,5.94592E0,1.6216146E0,7.702669E0,1.8243164E1,1.4067506E2,1.7482356E3,2.010802E2,1.216211E0,1.0962114E3,5.2702475E0,1.4594531E1,1.8918836E0,2.608097E2,2.8918793E1,1.6067497E2,2.0270183E0,4.4459267E1,3.7837672E0,1.0810764E0,1.3513454E1,6.7932135E2,2.432422E0,6.3513236E0,2.2972872E0,1.1621572E1,1.0810764E0],"tree_param":{"num_deleted":"0","num_feature":"7","num_nodes":"89","size_leaf_vector":"1"}},{"base_weights":[-5.8686256E-1,-9.6283436E-1,1.1980176E0,-1.0915444E0,6.191948E-1,-4.0491393E-1,1.6537803E0,-3.402803E-1,6.1922073E-1,-1.0353489E0,1.1223162E0,1.0978055E0,-7.342436E-1,1.7817715E0,-8.5506725E-1,-3.3942854E-1,1.1136135E0,-3.4003347E-1,1.5676347E0,1.6509874E0,-1.0426631E0,1.6616794E0,-1.0566198E0,-1.0429282E0,1.640987E0,8.154449E-1,5.426636E-1,-1.0462852E0,1.191752E0,1.5743685E0,-4.592342E-1,1.7024065E0,-2.415025E-1,1.777221E0,-3.3818173E-1,-3.398968E-1,1.5799012E0,1.7995669E0,-3.287316E-1,-3.391211E-1,4.524269E-1,-3.4015942E-1,1.5930043E0,1.7716253E0,-1.0253305E0,7.50056E-1,4.7021022E-1,-3.3970267E-1,1.5277237E0,1.7893193E0,-9.780932E-1,5.1125026E-1,-3.3376542E-1,4.5802656E-1,-3.3898336E-1,2.1602647E-1,5.374116E-1,4.0889567E-1,5.427273E-1,5.209009E-1,-2.1283127E-1,3.7499535E-1,5.432338E-1,5.078909E-1,-2.5949168E-1,4.2211145E-1,5.3923863E-1,-3.2372507E-1,-3.5738185E-2,2.1123546E-1,3.9241153E-1,5.7133305E-1,4.711096E-2,1.6001171E-1,5.457823E-1,-3.1466368E-1,-3.5738185E-2],"categories":[],"categories_nodes":[],"categories_segments":[],"categories_sizes":[],"default_left":[0,0,0,0,0,0,0,0,0,0,0,0,0,0,0,0,0,0,0,0,0,0,0,0,0,0,0,0,0,0,0,0,0,0,0,0,0,0,0,0,0,0,0,0,0,0,0,0,0,0,0,0,0,0,0,0,0,0,0,0,0,0,0,0,0,0,0,0,0,0,0,0,0,0,0,0,0],"id":1,"left_children":[1,3,5,7,9,11,13,-1,15,17,19,21,23,25,27,-1,29,-1,31,33,35,37,39,41,43,45,-1,47,49,51,53,55,-1,57,-1,-1,59,61,-1,-1,-1,-1,63,65,67,69,-1,-1,71,73,75,-1,-1,-1,-1,-1,-1,-1,-1,-1,-1,-1,-1,-1,-1,-1,-1,-1,-1,-1,-1,-1,-1,-1,-1,-1,-1],"loss_changes":[6.2828254E4,1.5747641E4,1.1901539E4,5.22775E3,4.845085E3,1.7859663E3,4.0744766E3,0E0,1.5099359E3,3.483734E2,5.109432E3,7.899695E2,2.171503E3,3.1465234E2,2.424794E2,0E0,9.8613367E2,0E0,1.726793E1,1.260042E3,2.094126E2,1.9764258E2,2.7289627E1,6.2973145E2,1.20508606E2,1.510498E1,0E0,1.2671167E2,7.063804E1,3.687556E2,4.1312704E2,2.8493805E0,0E0,4.2838867E1,0E0,0E0,1.1832451E1,7.590332E-1,0E0,0E0,0E0,0E0,2.3031754E1,5.341797E-1,6.7757416E-1,6.936676E0,0E0,0E0,9.346161E0,6.1013794E-1,6.118927E-1,0E0,0E0,0E0,0E0,0E0,0E0,0E0,0E0,0E0,0E0,0E0,0E0,0E0,0E0,0E0,0E0,0E0,0E0,0E0,0E0,0E0,0E0,0E0,0E0,0E0,0E0],"parents":[2147483647,0,0,1,1,2,2,3,3,4,4,5,5,6,6,8,8,9,9,10,10,11,11,12,12,13,13,14,14,16,16,18,18,19,19,20,20,21,21,22,22,23,23,24,24,25,25,27,27,28,28,29,29,30,30,31,31,33,33,36,36,37,37,42,42,43,43,44,44,45,45,48,48,49,49,50,50],"right_children":[2,4,6,8,10,12,14,-1,16,18,20,22,24,26,28,-1,30,-1,32,34,36,38,40,42,44,46,-1,48,50,52,54,56,-1,58,-1,-1,60,62,-1,-1,-1,-1,64,66,68,70,-1,-1,72,74,76,-1,-1,-1,-1,-1,-1,-1,-1,-1,-1,-1,-1,-1,-1,-1,-1,-1,-1,-1,-1,-1,-1,-1,-1,-1,-1],"split_conditions":[3.9407883E0,9.8580986E1,1E0,4.7992798E1,1E0,1E0,1E0,-3.402803E-1,1E0,4.7992798E1,1E0,1E0,9.8580986E1,4.0402355E0,9.8580986E1,-3.3942854E-1,1E0,-3.4003347E-1,1E0,1E0,4.7992798E1,1E0,4.7992798E1,4.7992798E1,1E0,9.8580986E1,5.426636E-1,4.7992798E1,1E0,1E0,1E0,1.0388904E2,-2.415025E-1,1.0388904E2,-3.3818173E-1,-3.398968E-1,1E0,4.0402355E0,-3.287316E-1,-3.391211E-1,4.524269E-1,-3.4015942E-1,1E0,1.0388904E2,1.0680099E1,1.4849252E1,4.7021022E-1,-3.3970267E-1,1E0,4.0402355E0,1.2755797E1,5.1125026E-1,-3.3376542E-1,4.5802656E-1,-3.3898336E-1,2.1602647E-1,5.374116E-1,4.0889567E-1,5.427273E-1,5.209009E-1,-2.1283127E-1,3.7499535E-1,5.432338E-1,5.078909E-1,-2.5949168E-1,4.2211145E-1,5.3923863E-1,-3.2372507E-1,-3.5738185E-2,2.1123546E-1,3.9241153E-1,5.7133305E-1,4.711096E-2,1.6001171E-1,5.457823E-1,-3.1466368E-1,-3.5738185E-2],"split_indices":[2,0,6,1,6,3,5,0,6,1,4,4,0,2,0,0,4,0,5,5,1,5,1,1,5,0,0,1,4,5,3,0,0,0,0,0,5,2,0,0,0,0,5,0,1,1,0,0,4,2,1,0,0,0,0,0,0,0,0,0,0,0,0,0,0,0,0,0,0,0,0,0,0,0,0,0,0],"split_type":[0,0,0,0,0,0,0,0,0,0,0,0,0,0,0,0,0,0,0,0,0,0,0,0,0,0,0,0,0,0,0,0,0,0,0,0,0,0,0,0,0,0,0,0,0,0,0,0,0,0,0,0,0,0,0,0,0,0,0,0,0,0,0,0,0,0,0,0,0,0,0,0,0,0,0,0,0],"sum_hessian":[9.362202E4,7.733288E4,1.6289141E4,7.1514914E4,5.8179697E3,3.6061858E3,1.2682954E4,6.9772805E4,1.7421101E3,1.3563798E3,4.46159E3,6.4782947E2,2.9583564E3,1.2067604E4,6.153506E2,3.8335562E2,1.3587544E3,1.3076637E3,4.871605E1,3.586124E3,8.754661E2,5.136274E2,1.3420207E2,2.618604E3,3.3975253E2,3.3012595E2,1.1737478E4,5.6322205E2,5.212849E1,1.0508997E3,3.0785486E2,4.6364895E1,2.3511524E0,3.4306104E3,1.5551357E2,8.468664E2,2.8599709E1,4.8949722E2,2.4130146E1,1.309928E2,3.2092738E0,2.5318289E3,8.677513E1,3.2420346E2,1.5549053E1,3.0555197E2,2.4573977E1,5.4554297E2,1.76791E1,4.1009888E1,1.1118602E1,1.00282135E3,4.8078247E1,7.7398796E1,2.3045604E2,4.6056137E0,4.175928E1,2.4821085E2,3.1823994E3,2.6996536E1,1.6031716E0,1.2035742E1,4.774615E2,8.368301E1,3.092125E0,2.5124605E1,2.9907886E2,1.4498287E1,1.0507661E0,2.843997E2,2.1152294E1,1.3562243E1,4.116856E0,1.3934033E0,3.9616486E1,1.0067836E1,1.0507661E0],"tree_param":{"num_deleted":"0","num_feature":"7","num_nodes":"77","size_leaf_vector":"1"}},{"base_weights":[-5.590443E-1,-9.234013E-1,9.868533E-1,-1.0518986E0,5.129624E-1,-3.8701484E-1,1.3405286E0,-3.286596E-1,4.9659243E-1,-9.925898E-1,9.2159057E-1,9.034129E-1,-6.9800204E-1,1.4372239E0,-8.115851E-1,-3.2759124E-1,8.824049E-1,-3.2834965E-1,1.1489686E0,1.3289822E0,-1.0011064E0,1.3408725E0,-1.0048691E0,-1.0019512E0,1.2959126E0,5.074267E-1,4.4101983E-1,-1.0015124E0,9.5762074E-1,1.2295225E0,-4.2913714E-1,1.2450453E0,-2.2137375E-1,1.4231704E0,-3.260333E-1,-3.2817808E-1,1.1993154E0,1.4451127E0,-3.1369665E-1,-3.2649115E-1,3.0965126E-1,-3.2850525E-1,1.2138046E0,1.3933693E0,-9.585279E-1,4.60521E-1,1.1165174E0,-3.2792336E-1,1.1023663E0,1.4166297E0,-9.063545E-1,3.968991E-1,-3.204694E-1,3.2586783E-1,-3.269659E-1,2.2003277E-1,4.344277E-1,2.7310288E-1,4.4100532E-1,3.9579836E-1,-1.9435404E-1,2.1145262E-1,4.4089952E-1,3.8645342E-1,-2.3900215E-1,1.6055362E-1,4.275225E-1,-3.0647224E-1,-3.0697187E-2,1.6567686E-1,8.3532855E-2,3.9400226E-1,1.705265E-1,4.1525558E-1,3.4785867E-2,1.2354045E-1,4.3420485E-1,-2.984887E-1,-2.3284838E-2],"categories":[],"categories_nodes":[],"categories_segments":[],"categories_sizes":[],"default_left":[0,0,0,0,0,0,0,0,0,0,0,0,0,0,0,0,0,0,0,0,0,0,0,0,0,0,0,0,0,0,0,0,0,0,0,0,0,0,0,0,0,0,0,0,0,0,0,0,0,0,0,0,0,0,0,0,0,0,0,0,0,0,0,0,0,0,0,0,0,0,0,0,0,0,0,0,0,0,0],"id":2,"left_children":[1,3,5,7,9,11,13,-1,15,17,19,21,23,25,27,-1,29,-1,31,33,35,37,39,41,43,45,-1,47,49,51,53,55,-1,57,-1,-1,59,61,-1,-1,-1,-1,63,65,67,69,71,-1,73,75,77,-1,-1,-1,-1,-1,-1,-1,-1,-1,-1,-1,-1,-1,-1,-1,-1,-1,-1,-1,-1,-1,-1,-1,-1,-1,-1,-1,-1],"loss_changes":[4.1494277E4,1.1003832E4,6.82817E3,3.6978203E3,3.0129927E3,1.155388E3,2.32667E3,0E0,9.205154E2,2.2946509E2,3.0180605E3,4.6819202E2,1.4068848E3,3.2583594E2,1.6263373E2,0E0,5.503566E2,0E0,9.617962E0,7.2475195E2,1.3896033E2,1.1479407E2,1.8945847E1,4.1644324E2,6.8833984E1,9.953796E0,0E0,8.500244E1,4.162943E1,2.0658081E2,2.549966E2,3.7198486E0,0E0,7.2166016E1,0E0,0E0,7.007553E0,6.9017944E0,0E0,0E0,0E0,0E0,1.3230286E1,7.2612915E0,6.146326E-1,5.5570374E0,2.003996E0,0E0,5.0212307E0,5.8399963E-1,6.517801E-1,0E0,0E0,0E0,0E0,0E0,0E0,0E0,0E0,0E0,0E0,0E0,0E0,0E0,0E0,0E0,0E0,0E0,0E0,0E0,0E0,0E0,0E0,0E0,0E0,0E0,0E0,0E0,0E0],"parents":[2147483647,0,0,1,1,2,2,3,3,4,4,5,5,6,6,8,8,9,9,10,10,11,11,12,12,13,13,14,14,16,16,18,18,19,19,20,20,21,21,22,22,23,23,24,24,25,25,27,27,28,28,29,29,30,30,31,31,33,33,36,36,37,37,42,42,43,43,44,44,45,45,46,46,48,48,49,49,50,50],"right_children":[2,4,6,8,10,12,14,-1,16,18,20,22,24,26,28,-1,30,-1,32,34,36,38,40,42,44,46,-1,48,50,52,54,56,-1,58,-1,-1,60,62,-1,-1,-1,-1,64,66,68,70,72,-1,74,76,78,-1,-1,-1,-1,-1,-1,-1,-1,-1,-1,-1,-1,-1,-1,-1,-1,-1,-1,-1,-1,-1,-1,-1,-1,-1,-1,-1,-1],"split_conditions":[3.9407883E0,9.8580986E1,1E0,4.7992798E1,1E0,1E0,1E0,-3.286596E-1,1E0,4.7992798E1,1E0,1E0,9.8580986E1,4.0402355E0,9.8580986E1,-3.2759124E-1,1E0,-3.2834965E-1,1E0,1E0,4.7992798E1,1E0,4.7992798E1,4.7992798E1,1E0,9.8580986E1,4.4101983E-1,4.7992798E1,1E0,1E0,1E0,5.8973557E1,-2.2137375E-1,1.0388904E2,-3.260333E-1,-3.2817808E-1,1E0,4.0402355E0,-3.1369665E-1,-3.2649115E-1,3.0965126E-1,-3.2850525E-1,1E0,4.0402355E0,1.0680099E1,1E0,1E0,-3.2792336E-1,1E0,4.0402355E0,1.0641024E1,3.968991E-1,-3.204694E-1,3.2586783E-1,-3.269659E-1,2.2003277E-1,4.344277E-1,2.7310288E-1,4.4100532E-1,3.9579836E-1,-1.9435404E-1,2.1145262E-1,4.4089952E-1,3.8645342E-1,-2.3900215E-1,1.6055362E-1,4.275225E-1,-3.0647224E-1,-3.0697187E-2,1.6567686E-1,8.3532855E-2,3.9400226E-1,1.705265E-1,4.1525558E-1,3.4785867E-2,1.2354045E-1,4.3420485E-1,-2.984887E-1,-2.3284838E-2],"split_indices":[2,0,6,1,6,3,5,0,6,1,4,4,0,2,0,0,4,0,5,5,1,5,1,1,5,0,0,1,4,5,3,1,0,0,0,0,5,2,0,0,0,0,5,2,1,4,4,0,4,2,2,0,0,0,0,0,0,0,0,0,0,0,0,0,0,0,0,0,0,0,0,0,0,0,0,0,0,0,0],"split_type":[0,0,0,0,0,0,0,0,0,0,0,0,0,0,0,0,0,0,0,0,0,0,0,0,0,0,0,0,0,0,0,0,0,0,0,0,0,0,0,0,0,0,0,0,0,0,0,0,0,0,0,0,0,0,0,0,0,0,0,0,0,0,0,0,0,0,0,0,0,0,0,0,0,0,0,0,0,0,0],"sum_hessian":[7.366563E4,5.9615168E4,1.4050465E4,5.472016E4,4.895008E3,2.8764944E3,1.1173971E4,5.32208E4,1.4993596E3,1.044653E3,3.8503547E3,5.582317E2,2.3182627E3,1.0693825E4,4.8014532E2,2.9263202E2,1.2067275E3,9.976665E2,4.6986412E1,3.1774153E3,6.7293945E2,4.543684E2,1.038633E2,2.012047E3,3.0621576E2,3.654E2,1.0328425E4,4.3398972E2,4.615561E1,9.5423804E2,2.5248955E2,4.503354E1,1.9528719E0,3.058575E3,1.1884021E2,6.4618427E2,2.6755175E1,4.3573077E2,1.863763E1,1.0022399E2,3.6393082E0,1.931429E3,8.0618065E1,2.9389307E2,1.2322686E1,3.4090335E2,2.4496662E1,4.1634973E2,1.7640001E1,3.7228085E1,8.927522E0,9.1734393E2,3.6894108E1,7.646975E1,1.7601979E2,1.4105398E1,3.092814E1,2.5772604E2,2.800849E3,2.5391232E1,1.3639442E0,1.4941472E1,4.207893E2,7.808861E1,2.5294538E0,1.1108007E1,2.8278506E2,1.1297646E1,1.0250406E0,2.253392E2,1.1556413E2,1.6996843E1,7.499819E0,1.3406506E1,4.233496E0,1.531709E0,3.5696377E1,7.883999E0,1.0435231E0],"tree_param":{"num_deleted":"0","num_feature":"7","num_nodes":"79","size_leaf_vector":"1"}},{"base_weights":[-5.3894186E-1,-8.956347E-1,8.7462294E-1,-1.0240953E0,4.545891E-1,-3.7267125E-1,1.1785655E0,-3.2062817E-1,4.227531E-1,-9.6108025E-1,8.12823E-1,7.9892445E-1,-6.7125857E-1,1.260547E0,-7.781674E-1,-3.1924972E-1,7.461864E-1,-3.2022768E-1,9.2701656E-1,1.1595064E0,-9.7116363E-1,1.174535E0,-9.6360976E-1,-9.7244143E-1,1.1063142E0,3.3727735E-1,3.9071068E-1,-9.6722937E-1,8.259926E-1,1.0340507E0,-4.0185207E-1,1.0065227E0,-2.0325899E-1,1.2382818E0,-3.1724986E-1,-3.2000622E-1,9.8552036E-1,1.2633086E0,-3.0129305E-1,-3.1731066E-1,7.665814E-1,-3.2042694E-1,9.9380845E-1,1.1881772E0,-8.980012E-1,3.0288467E-1,9.328961E-1,-3.1966954E-1,8.5535103E-1,1.2211431E0,-8.380008E-1,9.51982E-2,3.834332E-1,2.4923061E-1,-3.183975E-1,1.5688337E-1,3.7192094E-1,1.9619864E-1,3.906525E-1,3.2709682E-1,-1.7794888E-1,1.3552003E-1,3.9020708E-1,7.291446E-2,2.6522377E-1,6.826995E-2,3.7047935E-1,1.6430755E-1,3.776278E-1,-2.9165086E-1,-2.6370058E-2,1.3705926E-1,6.727879E-2,3.7216634E-1,9.577457E-2,4.9985895E-1,1.4919646E-1,9.629123E-2,3.7756065E-1,-2.816075E-1,-1.9939791E-2],"categories":[],"categories_nodes":[],"categories_segments":[],"categories_sizes":[],"default_left":[0,0,0,0,0,0,0,0,0,0,0,0,0,0,0,0,0,0,0,0,0,0,0,0,0,0,0,0,0,0,0,0,0,0,0,0,0,0,0,0,0,0,0,0,0,0,0,0,0,0,0,0,0,0,0,0,0,0,0,0,0,0,0,0,0,0,0,0,0,0,0,0,0,0,0,0,0,0,0,0,0],"id":3,"left_children":[1,3,5,7,9,11,13,-1,15,17,19,21,23,25,27,-1,29,-1,31,33,35,37,39,41,43,45,-1,47,49,51,53,55,-1,57,-1,-1,59,61,-1,-1,63,-1,65,67,69,71,73,-1,75,77,79,-1,-1,-1,-1,-1,-1,-1,-1,-1,-1,-1,-1,-1,-1,-1,-1,-1,-1,-1,-1,-1,-1,-1,-1,-1,-1,-1,-1,-1,-1],"loss_changes":[2.8697688E4,7.883336E3,4.348169E3,2.6823047E3,2.0034446E3,7.868779E2,1.4802646E3,0E0,5.988021E2,1.6120648E2,1.9505696E3,3.0366412E2,9.6038367E2,3.4132715E2,1.1345097E2,0E0,3.3813293E2,0E0,6.1779213E0,4.6230176E2,9.701242E1,7.421893E1,1.3969345E1,2.8932593E2,4.3740875E1,7.602249E0,0E0,6.0546387E1,2.7127638E1,1.4256195E2,1.6799936E2,4.026291E0,0E0,9.432544E1,0E0,0E0,4.6865807E0,1.0419922E1,0E0,0E0,7.723713E-2,0E0,1.2951462E1,1.0626129E1,5.619669E-1,4.320858E0,3.4801903E0,0E0,4.277363E0,6.8961334E-1,5.75541E-1,0E0,0E0,0E0,0E0,0E0,0E0,0E0,0E0,0E0,0E0,0E0,0E0,0E0,0E0,0E0,0E0,0E0,0E0,0E0,0E0,0E0,0E0,0E0,0E0,0E0,0E0,0E0,0E0,0E0,0E0],"parents":[2147483647,0,0,1,1,2,2,3,3,4,4,5,5,6,6,8,8,9,9,10,10,11,11,12,12,13,13,14,14,16,16,18,18,19,19,20,20,21,21,22,22,23,23,24,24,25,25,27,27,28,28,29,29,30,30,31,31,33,33,36,36,37,37,40,40,42,42,43,43,44,44,45,45,46,46,48,48,49,49,50,50],"right_children":[2,4,6,8,10,12,14,-1,16,18,20,22,24,26,28,-1,30,-1,32,34,36,38,40,42,44,46,-1,48,50,52,54,56,-1,58,-1,-1,60,62,-1,-1,64,-1,66,68,70,72,74,-1,76,78,80,-1,-1,-1,-1,-1,-1,-1,-1,-1,-1,-1,-1,-1,-1,-1,-1,-1,-1,-1,-1,-1,-1,-1,-1,-1,-1,-1,-1,-1,-1],"split_conditions":[3.9407883E0,9.8580986E1,1E0,4.7992798E1,1E0,1E0,1E0,-3.2062817E-1,1E0,4.7992798E1,1E0,1E0,9.8580986E1,4.0402355E0,9.8580986E1,-3.1924972E-1,1E0,-3.2022768E-1,1E0,1E0,4.7992798E1,1E0,4.7992798E1,4.7992798E1,1E0,1.0388904E2,3.9071068E-1,4.7992798E1,1E0,5.8973557E1,1E0,5.8973557E1,-2.0325899E-1,1.0388904E2,-3.1724986E-1,-3.2000622E-1,1E0,4.0402355E0,-3.0129305E-1,-3.1731066E-1,7.9229456E-1,-3.2042694E-1,5.8973557E1,1.0388904E2,1.0680099E1,4.5769107E-1,1E0,-3.1966954E-1,2.7631328E0,4.0402355E0,1.0641024E1,9.51982E-2,3.834332E-1,2.4923061E-1,-3.183975E-1,1.5688337E-1,3.7192094E-1,1.9619864E-1,3.906525E-1,3.2709682E-1,-1.7794888E-1,1.3552003E-1,3.9020708E-1,7.291446E-2,2.6522377E-1,6.826995E-2,3.7047935E-1,1.6430755E-1,3.776278E-1,-2.9165086E-1,-2.6370058E-2,1.3705926E-1,6.727879E-2,3.7216634E-1,9.577457E-2,4.9985895E-1,1.4919646E-1,9.629123E-2,3.7756065E-1,-2.816075E-1,-1.9939791E-2],"split_indices":[2,0,6,1,6,3,5,0,6,1,4,4,0,2,0,0,4,0,5,5,1,5,1,1,5,0,0,1,4,1,3,1,0,0,0,0,5,2,0,0,0,0,1,0,1,1,4,0,0,2,2,0,0,0,0,0,0,0,0,0,0,0,0,0,0,0,0,0,0,0,0,0,0,0,0,0,0,0,0,0,0],"split_type":[0,0,0,0,0,0,0,0,0,0,0,0,0,0,0,0,0,0,0,0,0,0,0,0,0,0,0,0,0,0,0,0,0,0,0,0,0,0,0,0,0,0,0,0,0,0,0,0,0,0,0,0,0,0,0,0,0,0,0,0,0,0,0,0,0,0,0,0,0,0,0,0,0,0,0,0,0,0,0,0,0],"sum_hessian":[5.6913758E4,4.544638E4,1.1467378E4,4.149845E4,3.94793E3,2.2468237E3,9.220554E3,4.025598E4,1.2424692E3,7.969316E2,3.1509983E3,4.559791E2,1.7908447E3,8.850115E3,3.704388E2,2.215675E2,1.0209018E3,7.5485E2,4.2081585E1,2.6385894E3,5.12409E2,3.7615167E2,7.982742E1,1.5317634E3,2.5908124E2,3.8390796E2,8.466207E3,3.3173813E2,3.8700703E1,8.1631464E2,2.0458711E2,4.0449974E1,1.6316108E0,2.5484775E3,9.011191E1,4.8899167E2,2.3417334E1,3.6182968E2,1.432199E1,7.6078735E1,3.7486885E0,1.461143E3,7.0620544E1,2.4930594E2,9.7753E0,3.6437637E2,1.953158E1,3.1514984E2,1.6588295E1,3.1489086E1,7.2116156E0,2.07946E2,6.0836865E2,7.1216545E1,1.3337057E2,1.4215635E1,2.6234339E1,2.5231873E2,2.2961587E3,2.2249619E1,1.1677152E0,1.6508314E1,3.4532138E2,1.2495627E0,2.4991255E0,1.736899E1,5.3251556E1,2.5616125E1,2.2368982E2,8.772115E0,1.0031848E0,1.2153735E2,2.4283902E2,1.2328802E1,7.202778E0,3.9618714E0,1.2626423E1,1.6380858E0,2.9851002E1,6.187453E0,1.0241628E0],"tree_param":{"num_deleted":"0","num_feature":"7","num_nodes":"81","size_leaf_vector":"1"}},{"base_weights":[-5.234328E-1,-8.744979E-1,8.0276644E-1,-1.0030861E0,4.1589895E-1,-3.6020792E-1,1.0769298E0,-3.149651E-1,3.592521E-1,-9.361054E-1,7.412495E-1,7.3134255E-1,-6.4858395E-1,1.1504029E0,-7.472399E-1,-3.1315878E-1,6.283491E-1,-3.1443924E-1,7.6777357E-1,1.0496707E0,-9.483135E-1,1.0691652E0,-9.258876E-1,-9.483053E-1,9.716156E-1,2.3099276E-1,3.6134988E-1,-9.346593E-1,7.3419845E-1,7.604803E-1,-1.3734517E0,8.370272E-1,-1.8678266E-1,1.1189703E0,-3.1055617E-1,-3.141488E-1,8.3340764E-1,1.1491411E0,-2.9013035E-1,-3.10252E-1,6.1230713E-1,-3.1469953E-1,8.175833E-1,1.0436901E0,-8.3971894E-1,2.015753E-1,7.3528993E-1,-1.03193E0,9.3374854E-1,1.0927947E0,-7.72928E-1,2.9147387E-1,-5.648463E-2,-6.7313987E-1,-3.185202E-1,1.14034235E-1,3.3189094E-1,1.4389291E-1,3.6125308E-1,1.277405E-2,3.1279698E-1,9.128272E-2,3.605092E-1,2.3011793E-1,2.9068174E-2,2.7119625E-1,-2.4566588E-1,4.1724625E-3,3.3211833E-1,-2.802316E-1,-3.7112348E-2,5.603687E-2,2.8570744E-1,2.9239392E-1,9.098007E-2,-3.1370217E-1,-6.0094696E-2,3.681131E-1,2.0720232E-2,7.557453E-2,3.421016E-1,-2.661386E-1,-1.5545291E-2],"categories":[],"categories_nodes":[],"categories_segments":[],"categories_sizes":[],"default_left":[0,0,0,0,0,0,0,0,0,0,0,0,0,0,0,0,0,0,0,0,0,0,0,0,0,0,0,0,0,0,0,0,0,0,0,0,0,0,0,0,0,0,0,0,0,0,0,0,0,0,0,0,0,0,0,0,0,0,0,0,0,0,0,0,0,0,0,0,0,0,0,0,0,0,0,0,0,0,0,0,0,0,0],"id":4,"left_children":[1,3,5,7,9,11,13,-1,15,17,19,21,23,25,27,-1,29,-1,31,33,35,37,39,41,43,45,-1,47,49,51,53,55,-1,57,-1,-1,59,61,-1,-1,63,-1,65,67,69,71,73,75,77,79,81,-1,-1,-1,-1,-1,-1,-1,-1,-1,-1,-1,-1,-1,-1,-1,-1,-1,-1,-1,-1,-1,-1,-1,-1,-1,-1,-1,-1,-1,-1,-1,-1],"loss_changes":[2.0275984E4,5.713996E3,2.9068247E3,1.99675E3,1.3735817E3,5.480984E2,9.8955273E2,0E0,3.935874E2,1.16443665E2,1.3122091E3,2.047952E2,6.694512E2,3.5243652E2,8.015579E1,0E0,2.3217279E2,0E0,4.1754475E0,3.0865576E2,6.9375336E1,5.043228E1,1.0989906E1,2.0752478E2,2.8998413E1,5.7162457E0,0E0,4.7219986E1,1.8519468E1,1.644885E2,1.2393692E1,4.0797977E0,0E0,1.1165796E2,0E0,0E0,3.4309092E0,1.2594208E1,0E0,0E0,3.0194724E-1,0E0,9.685249E0,1.3533051E1,4.7899294E-1,3.9838E0,1.9184885E0,2.5610352E0,3.2424898E0,7.854576E-1,5.19907E-1,0E0,0E0,0E0,0E0,0E0,0E0,0E0,0E0,0E0,0E0,0E0,0E0,0E0,0E0,0E0,0E0,0E0,0E0,0E0,0E0,0E0,0E0,0E0,0E0,0E0,0E0,0E0,0E0,0E0,0E0,0E0,0E0],"parents":[2147483647,0,0,1,1,2,2,3,3,4,4,5,5,6,6,8,8,9,9,10,10,11,11,12,12,13,13,14,14,16,16,18,18,19,19,20,20,21,21,22,22,23,23,24,24,25,25,27,27,28,28,29,29,30,30,31,31,33,33,36,36,37,37,40,40,42,42,43,43,44,44,45,45,46,46,47,47,48,48,49,49,50,50],"right_children":[2,4,6,8,10,12,14,-1,16,18,20,22,24,26,28,-1,30,-1,32,34,36,38,40,42,44,46,-1,48,50,52,54,56,-1,58,-1,-1,60,62,-1,-1,64,-1,66,68,70,72,74,76,78,80,82,-1,-1,-1,-1,-1,-1,-1,-1,-1,-1,-1,-1,-1,-1,-1,-1,-1,-1,-1,-1,-1,-1,-1,-1,-1,-1,-1,-1,-1,-1,-1,-1],"split_conditions":[3.9407883E0,9.8580986E1,1E0,4.7992798E1,1E0,1E0,1E0,-3.149651E-1,1E0,4.7992798E1,1E0,1E0,9.8580986E1,4.0402355E0,9.8580986E1,-3.1315878E-1,1E0,-3.1443924E-1,1E0,1E0,4.7992798E1,1E0,4.7992798E1,4.7992798E1,1E0,9.8580986E1,3.6134988E-1,5.8973557E1,1E0,1E0,1E0,5.8973557E1,-1.8678266E-1,1.0388904E2,-3.1055617E-1,-3.141488E-1,5.8973557E1,4.0402355E0,-2.9013035E-1,-3.10252E-1,1.523397E0,-3.1469953E-1,1E0,4.0402355E0,9.611348E0,4.073128E1,1E0,4.7992798E1,1E0,4.0402355E0,8.187182E0,2.9147387E-1,-5.648463E-2,-6.7313987E-1,-3.185202E-1,1.14034235E-1,3.3189094E-1,1.4389291E-1,3.6125308E-1,1.277405E-2,3.1279698E-1,9.128272E-2,3.605092E-1,2.3011793E-1,2.9068174E-2,2.7119625E-1,-2.4566588E-1,4.1724625E-3,3.3211833E-1,-2.802316E-1,-3.7112348E-2,5.603687E-2,2.8570744E-1,2.9239392E-1,9.098007E-2,-3.1370217E-1,-6.0094696E-2,3.681131E-1,2.0720232E-2,7.557453E-2,3.421016E-1,-2.661386E-1,-1.5545291E-2],"split_indices":[2,0,6,1,6,3,5,0,6,1,4,4,0,2,0,0,5,0,5,5,1,5,1,1,5,0,0,1,4,4,3,1,0,0,0,0,1,2,0,0,0,0,5,2,2,1,4,1,4,2,1,0,0,0,0,0,0,0,0,0,0,0,0,0,0,0,0,0,0,0,0,0,0,0,0,0,0,0,0,0,0,0,0],"split_type":[0,0,0,0,0,0,0,0,0,0,0,0,0,0,0,0,0,0,0,0,0,0,0,0,0,0,0,0,0,0,0,0,0,0,0,0,0,0,0,0,0,0,0,0,0,0,0,0,0,0,0,0,0,0,0,0,0,0,0,0,0,0,0,0,0,0,0,0,0,0,0,0,0,0,0,0,0,0,0,0,0,0,0],"sum_hessian":[4.3547227E4,3.4432707E4,9.11452E3,3.1312623E4,3.120084E3,1.7387207E3,7.3757993E3,3.027295E4,1.0396741E3,6.048274E2,2.5152566E3,3.6303555E2,1.375685E3,7.0905776E3,2.8522174E2,1.6684396E2,8.728301E2,5.67876E2,3.6951447E1,2.1273064E3,3.8795032E2,3.0185745E2,6.117812E1,1.161275E3,2.1441003E2,3.9430853E2,6.696269E3,2.5351782E2,3.1703903E1,8.1936694E2,5.3463158E1,3.557736E1,1.3740859E0,2.0593188E3,6.7987366E1,3.679489E2,2.0001394E1,2.9086902E2,1.0988424E1,5.7460674E1,3.7174466E0,1.099014E3,6.2261093E1,2.0661255E2,7.797486E0,3.7389746E2,2.041107E1,2.4139815E2,1.2119675E1,2.5832417E1,5.8714867E0,6.7021936E2,1.4914757E2,1.2464059E1,4.0999096E1,1.4086573E1,2.1490786E1,2.429596E2,1.8163594E3,4.43676E0,1.5564634E1,1.743193E1,2.7343707E2,2.4835262E0,1.2339202E0,5.9563774E1,2.6973178E0,1.2048187E1,1.9456436E2,6.6201987E0,1.1772871E0,3.6790088E2,5.996556E0,1.2326008E1,8.085062E0,2.3722029E2,4.177868E0,8.737045E0,3.3826296E0,1.7194912E0,2.4112925E1,4.870008E0,1.0014787E0],"tree_param":{"num_deleted":"0","num_feature":"7","num_nodes":"83","size_leaf_vector":"1"}},{"base_weights":[-5.107357E-1,-8.574679E-1,7.5094503E-1,-9.8655874E-1,3.8657513E-1,-3.4987196E-1,1.0046405E0,-3.1091565E-1,3.0650806E-1,-9.1458285E-1,6.8701005E-1,6.811302E-1,-6.299075E-1,1.0722201E0,-7.216544E-1,-3.085284E-1,5.3090084E-1,-3.1021875E-1,6.3946176E-1,9.673628E-1,-9.2680496E-1,9.9260426E-1,-8.898817E-1,-9.297523E-1,8.6458325E-1,1.6145925E-1,3.4271616E-1,-9.089607E-1,6.6021985E-1,6.412122E-1,-1.2645091E0,2.4384029E-1,9.2235154E-1,1.0298034E0,-3.051201E-1,-3.0983463E-1,6.9213974E-1,1.0669156E0,-2.792919E-1,-3.0444655E-1,4.9261075E-1,-3.1056258E-1,6.8628275E-1,9.30151E-1,-7.789628E-1,1.396327E-1,6.531584E-1,-1.0119122E0,8.0257714E-1,9.9476385E-1,-7.094431E-1,-1.7067064E-2,2.7521223E-1,-5.289162E-1,-3.0924648E-1,-2.0262949E-1,1.1217278E-1,5.8200028E-2,3.020693E-1,1.057599E-1,3.4257644E-1,2.4609442E-1,-1.8447025E-1,6.300138E-2,3.415031E-1,1.8909793E-1,1.7540775E-2,-2.1034066E-2,2.9125908E-1,3.3781376E-2,3.1567186E-1,-2.646065E-1,-2.3827432E-2,-9.525573E-2,4.814813E-2,3.145628E-1,4.3849044E-2,-3.0924058E-1,-4.6185568E-2,3.3347148E-1,1.577633E-2,9.649513E-2,3.2981667E-1,-2.5027537E-1,-1.918301E-2],"categories":[],"categories_nodes":[],"categories_segments":[],"categories_sizes":[],"default_left":[0,0,0,0,0,0,0,0,0,0,0,0,0,0,0,0,0,0,0,0,0,0,0,0,0,0,0,0,0,0,0,0,0,0,0,0,0,0,0,0,0,0,0,0,0,0,0,0,0,0,0,0,0,0,0,0,0,0,0,0,0,0,0,0,0,0,0,0,0,0,0,0,0,0,0,0,0,0,0,0,0,0,0,0,0],"id":5,"left_children":[1,3,5,7,9,11,13,-1,15,17,19,21,23,25,27,-1,29,-1,31,33,35,37,39,41,43,45,-1,47,49,51,53,55,57,59,-1,-1,61,63,-1,-1,65,-1,67,69,71,73,75,77,79,81,83,-1,-1,-1,-1,-1,-1,-1,-1,-1,-1,-1,-1,-1,-1,-1,-1,-1,-1,-1,-1,-1,-1,-1,-1,-1,-1,-1,-1,-1,-1,-1,-1,-1,-1],"loss_changes":[1.4494664E4,4.1742207E3,1.9951638E3,1.5174238E3,9.560513E2,3.869005E2,6.7803516E2,0E0,2.624884E2,8.586865E1,8.9951764E2,1.410269E2,4.7275085E2,3.5685645E2,5.7361786E1,0E0,1.4920804E2,0E0,3.5109758E0,2.107876E2,5.1239304E1,3.5226074E1,8.776138E0,1.5028381E2,1.9746063E1,4.210347E0,0E0,3.49153E1,1.2965613E1,1.3627087E2,3.2747269E0,2.0791676E0,9.810753E-1,1.2424756E2,0E0,0E0,3.635767E0,1.3902496E1,0E0,0E0,2.4083102E-1,0E0,1.1770727E1,1.6869278E1,4.5737123E-1,3.72303E0,3.2071986E0,2.8071747E0,2.6156182E0,1.1900768E0,4.1682577E-1,0E0,0E0,0E0,0E0,0E0,0E0,0E0,0E0,0E0,0E0,0E0,0E0,0E0,0E0,0E0,0E0,0E0,0E0,0E0,0E0,0E0,0E0,0E0,0E0,0E0,0E0,0E0,0E0,0E0,0E0,0E0,0E0,0E0,0E0],"parents":[2147483647,0,0,1,1,2,2,3,3,4,4,5,5,6,6,8,8,9,9,10,10,11,11,12,12,13,13,14,14,16,16,18,18,19,19,20,20,21,21,22,22,23,23,24,24,25,25,27,27,28,28,29,29,30,30,31,31,32,32,33,33,36,36,37,37,40,40,42,42,43,43,44,44,45,45,46,46,47,47,48,48,49,49,50,50],"right_children":[2,4,6,8,10,12,14,-1,16,18,20,22,24,26,28,-1,30,-1,32,34,36,38,40,42,44,46,-1,48,50,52,54,56,58,60,-1,-1,62,64,-1,-1,66,-1,68,70,72,74,76,78,80,82,84,-1,-1,-1,-1,-1,-1,-1,-1,-1,-1,-1,-1,-1,-1,-1,-1,-1,-1,-1,-1,-1,-1,-1,-1,-1,-1,-1,-1,-1,-1,-1,-1,-1,-1],"split_conditions":[3.9407883E0,9.8580986E1,1E0,4.7992798E1,1E0,1E0,1E0,-3.1091565E-1,1E0,4.7992798E1,1E0,1E0,9.8580986E1,4.0402355E0,9.8580986E1,-3.085284E-1,1E0,-3.1021875E-1,5.8973557E1,1E0,4.7992798E1,1E0,4.7992798E1,4.7992798E1,1E0,1.0388904E2,3.4271616E-1,5.8973557E1,1E0,5.8973557E1,1E0,1.0388904E2,1.0388904E2,1.0388904E2,-3.051201E-1,-3.0983463E-1,1E0,4.0402355E0,-2.792919E-1,-3.0444655E-1,7.713462E0,-3.1056258E-1,5.8973557E1,1.0388904E2,7.90107E0,4.863193E-2,1E0,4.7992798E1,1E0,1.1008417E2,7.90107E0,-1.7067064E-2,2.7521223E-1,-5.289162E-1,-3.0924648E-1,-2.0262949E-1,1.1217278E-1,5.8200028E-2,3.020693E-1,1.057599E-1,3.4257644E-1,2.4609442E-1,-1.8447025E-1,6.300138E-2,3.415031E-1,1.8909793E-1,1.7540775E-2,-2.1034066E-2,2.9125908E-1,3.3781376E-2,3.1567186E-1,-2.646065E-1,-2.3827432E-2,-9.525573E-2,4.814813E-2,3.145628E-1,4.3849044E-2,-3.0924058E-1,-4.6185568E-2,3.3347148E-1,1.577633E-2,9.649513E-2,3.2981667E-1,-2.5027537E-1,-1.918301E-2],"split_indices":[2,0,6,1,6,3,5,0,6,1,4,4,0,2,0,0,5,0,1,5,1,5,1,1,5,0,0,1,4,1,3,0,0,0,0,0,5,2,0,0,2,0,1,0,1,1,4,1,4,0,1,0,0,0,0,0,0,0,0,0,0,0,0,0,0,0,0,0,0,0,0,0,0,0,0,0,0,0,0,0,0,0,0,0,0],"split_type":[0,0,0,0,0,0,0,0,0,0,0,0,0,0,0,0,0,0,0,0,0,0,0,0,0,0,0,0,0,0,0,0,0,0,0,0,0,0,0,0,0,0,0,0,0,0,0,0,0,0,0,0,0,0,0,0,0,0,0,0,0,0,0,0,0,0,0,0,0,0,0,0,0,0,0,0,0,0,0,0,0,0,0,0,0],"sum_hessian":[3.3130816E4,2.598892E4,7.1418955E3,2.3545842E4,2.443079E3,1.3375813E3,5.8043145E3,2.2672389E4,8.73453E2,4.5790167E2,1.9851772E3,2.8539923E2,1.052182E3,5.5860166E3,2.1829785E2,1.2517725E2,7.4827576E2,4.2552094E2,3.238075E1,1.6916957E3,2.9348166E2,2.3848463E2,4.6914597E1,8.766705E2,1.7551154E2,3.9981146E2,5.186205E3,1.9254196E2,2.5755894E1,7.0556793E2,4.2707794E1,1.4276716E1,1.8104033E1,1.6405562E3,5.1139454E1,2.7579034E2,1.7691332E1,2.30043E2,8.441634E0,4.3270092E1,3.6445017E0,8.2330426E2,5.336626E1,1.691957E2,6.3158455E0,3.8404755E2,1.5763914E1,1.8200298E2,1.0538982E1,2.0919872E1,4.8360214E0,2.0022308E2,5.0534485E2,1.1541302E1,3.1166492E1,1.2499226E0,1.3026794E1,2.2255836E0,1.58784485E1,2.3359908E2,1.4069572E3,1.6450502E1,1.2408305E0,1.8003088E1,2.1203992E2,2.4237604E0,1.2207414E0,1.47952175E1,3.8571045E1,2.2233688E1,1.46962E2,5.277481E0,1.0383642E0,1.6139688E1,3.6790787E2,8.256704E0,7.5072103E0,1.7788504E2,4.1179357E0,7.122435E0,3.4165473E0,3.3623326E0,1.7557539E1,3.8074377E0,1.0285838E0],"tree_param":{"num_deleted":"0","num_feature":"7","num_nodes":"85","size_leaf_vector":"1"}},{"base_weights":[-4.9880093E-1,-8.413476E-1,7.0854765E-1,-9.7096735E-1,3.6158395E-1,-3.386665E-1,9.465958E-1,-3.0799055E-1,2.4218772E-1,-8.92616E-1,6.410186E-1,6.3924146E-1,-6.09528E-1,1.009752E0,-6.9464624E-1,-3.048215E-1,4.1602582E-1,-3.070622E-1,5.1803535E-1,8.977357E-1,-9.102455E-1,9.299993E-1,-8.5321677E-1,-9.105246E-1,7.6441276E-1,1.130866E-1,3.302852E-1,-8.836701E-1,5.8233434E-1,6.95403E-1,-4.0847927E-1,5.971379E-1,-1.904272E-1,9.5452297E-1,-3.0035114E-1,-1.0069308E0,8.288147E-1,1.0002815E0,-2.6816896E-1,-2.9927465E-1,3.9964777E-1,-3.075192E-1,5.6201875E-1,-3.1077063E-1,8.6570406E-1,-2.4206866E-1,1.3878411E-1,-3.0576065E-1,4.542394E-1,8.8956815E-1,-6.4790463E-1,3.2015655E-3,3.1009477E-1,2.1249498E-1,-3.14538E-1,6.138715E-2,2.8045556E-1,7.733862E-2,3.3009258E-1,-3.0655155E-1,-4.673007E-2,2.1771723E-2,2.7767298E-1,4.4064257E-2,3.28616E-1,-2.3738898E-3,1.6421333E-1,-1.4944655E-2,2.507683E-1,1.315654E-1,-2.0659192E-1,2.103402E-2,3.070612E-1,-1.0946866E-1,2.851358E-1,1.7633449E-1,2.8836178E-2,3.9121875E-1,2.339609E-2,7.543936E-3,2.976765E-1,-2.3498581E-1,-1.6418533E-2],"categories":[],"categories_nodes":[],"categories_segments":[],"categories_sizes":[],"default_left":[0,0,0,0,0,0,0,0,0,0,0,0,0,0,0,0,0,0,0,0,0,0,0,0,0,0,0,0,0,0,0,0,0,0,0,0,0,0,0,0,0,0,0,0,0,0,0,0,0,0,0,0,0,0,0,0,0,0,0,0,0,0,0,0,0,0,0,0,0,0,0,0,0,0,0,0,0,0,0,0,0,0,0],"id":6,"left_children":[1,3,5,7,9,11,13,-1,15,17,19,21,23,25,27,-1,29,-1,31,33,35,37,39,41,43,45,-1,47,49,51,53,55,-1,57,-1,59,61,63,-1,-1,65,-1,67,69,71,73,75,-1,77,79,81,-1,-1,-1,-1,-1,-1,-1,-1,-1,-1,-1,-1,-1,-1,-1,-1,-1,-1,-1,-1,-1,-1,-1,-1,-1,-1,-1,-1,-1,-1,-1,-1],"loss_changes":[1.0414639E4,3.0589297E3,1.3878018E3,1.1961387E3,6.6954395E2,2.7363654E2,4.7079517E2,0E0,1.7053726E2,6.484076E1,6.226989E2,9.8102905E1,3.349913E2,3.5703027E2,4.1221725E1,0E0,1.5784882E2,0E0,3.136322E0,1.4549194E2,3.8200394E1,2.5013763E1,7.1062775E0,1.1249213E2,1.6148674E1,3.7236786E0,0E0,2.7172104E1,9.023005E0,1.1840561E2,1.2492535E2,3.6277895E0,0E0,1.319596E2,0E0,2.5178833E0,8.294382E-1,1.4582306E1,0E0,0E0,2.7802324E-1,0E0,8.174247E0,4.064909E0,1.6694412E1,4.396144E0,7.178196E0,0E0,4.451673E0,1.5997152E0,3.6221218E-1,0E0,0E0,0E0,0E0,0E0,0E0,0E0,0E0,0E0,0E0,0E0,0E0,0E0,0E0,0E0,0E0,0E0,0E0,0E0,0E0,0E0,0E0,0E0,0E0,0E0,0E0,0E0,0E0,0E0,0E0,0E0,0E0],"parents":[2147483647,0,0,1,1,2,2,3,3,4,4,5,5,6,6,8,8,9,9,10,10,11,11,12,12,13,13,14,14,16,16,18,18,19,19,20,20,21,21,22,22,23,23,24,24,25,25,27,27,28,28,29,29,30,30,31,31,33,33,35,35,36,36,37,37,40,40,42,42,43,43,44,44,45,45,46,46,48,48,49,49,50,50],"right_children":[2,4,6,8,10,12,14,-1,16,18,20,22,24,26,28,-1,30,-1,32,34,36,38,40,42,44,46,-1,48,50,52,54,56,-1,58,-1,60,62,64,-1,-1,66,-1,68,70,72,74,76,-1,78,80,82,-1,-1,-1,-1,-1,-1,-1,-1,-1,-1,-1,-1,-1,-1,-1,-1,-1,-1,-1,-1,-1,-1,-1,-1,-1,-1,-1,-1,-1,-1,-1,-1],"split_conditions":[3.9407883E0,9.8580986E1,1E0,4.7992798E1,1E0,1E0,1E0,-3.0799055E-1,1E0,4.7992798E1,1E0,1E0,9.8580986E1,4.0402355E0,9.8580986E1,-3.048215E-1,1E0,-3.070622E-1,1E0,1E0,5.8973557E1,1E0,4.7992798E1,4.7992798E1,4.0402355E0,1.1627893E0,3.302852E-1,4.7992798E1,1E0,5.8973557E1,1E0,5.8973557E1,-1.904272E-1,1.0388904E2,-3.0035114E-1,4.7992798E1,1.1008417E2,4.0402355E0,-2.6816896E-1,-2.9927465E-1,7.9229456E-1,-3.075192E-1,5.8973557E1,3.5256016E-1,1.0388904E2,1.3394278E1,2.2057147E0,-3.0576065E-1,2.7631328E0,4.0402355E0,7.90107E0,3.2015655E-3,3.1009477E-1,2.1249498E-1,-3.14538E-1,6.138715E-2,2.8045556E-1,7.733862E-2,3.3009258E-1,-3.0655155E-1,-4.673007E-2,2.1771723E-2,2.7767298E-1,4.4064257E-2,3.28616E-1,-2.3738898E-3,1.6421333E-1,-1.4944655E-2,2.507683E-1,1.315654E-1,-2.0659192E-1,2.103402E-2,3.070612E-1,-1.0946866E-1,2.851358E-1,1.7633449E-1,2.8836178E-2,3.9121875E-1,2.339609E-2,7.543936E-3,2.976765E-1,-2.3498581E-1,-1.6418533E-2],"split_indices":[2,0,6,1,6,3,5,0,6,1,4,4,0,2,0,0,4,0,5,5,1,5,1,1,2,0,0,1,4,1,3,1,0,0,0,1,0,2,0,0,0,0,1,1,0,1,0,0,0,2,1,0,0,0,0,0,0,0,0,0,0,0,0,0,0,0,0,0,0,0,0,0,0,0,0,0,0,0,0,0,0,0,0],"split_type":[0,0,0,0,0,0,0,0,0,0,0,0,0,0,0,0,0,0,0,0,0,0,0,0,0,0,0,0,0,0,0,0,0,0,0,0,0,0,0,0,0,0,0,0,0,0,0,0,0,0,0,0,0,0,0,0,0,0,0,0,0,0,0,0,0,0,0,0,0,0,0,0,0,0,0,0,0,0,0,0,0,0,0],"sum_hessian":[2.5179652E4,1.9614863E4,5.5647886E3,1.7707062E4,1.9078009E3,1.0305967E3,4.534192E3,1.6930338E4,7.7672577E2,3.4720956E2,1.5605913E3,2.2324425E2,8.0735236E2,4.3665483E3,1.676435E2,9.369634E1,6.830294E2,3.1797247E2,2.9237083E1,1.3393629E3,2.2122844E2,1.8715913E2,3.6085114E1,6.6254285E2,1.4480952E2,4.033215E2,3.9632268E3,1.4629614E2,2.1347347E1,5.1028116E2,1.7274825E2,2.7810766E1,1.4263176E0,1.3009548E3,3.8408066E1,2.0997557E2,1.1252879E1,1.8064955E2,6.509594E0,3.2539413E1,3.5457008E0,6.150092E2,4.7533627E1,1.2289649E1,1.3251987E2,2.6645437E1,3.766761E2,1.3305565E2,1.3240501E1,1.7303078E1,4.04427E0,1.6906494E2,3.4121625E2,6.2892014E1,1.0985624E2,1.3604546E1,1.4206221E1,2.255917E2,1.0753632E3,2.061642E2,3.8113716E0,1.4750032E0,9.777876E0,1.8368568E1,1.6228098E2,1.195092E0,2.3506088E0,1.4951124E1,3.2582504E1,4.066033E0,8.223616E0,2.2176905E1,1.10342964E2,2.47865E1,1.8589373E0,3.1577065E1,3.45099E2,3.3064525E0,9.934049E0,1.9694091E0,1.5333669E1,3.0318193E0,1.0124509E0],"tree_param":{"num_deleted":"0","num_feature":"7","num_nodes":"83","size_leaf_vector":"1"}},{"base_weights":[-4.8779276E-1,-8.27823E-1,6.697081E-1,-9.5906454E-1,3.383499E-1,-3.254718E-1,8.943433E-1,-3.0586156E-1,2.0488735E-1,-8.71744E-1,5.97769E-1,6.004828E-1,-5.8532244E-1,9.53877E-1,-6.6279185E-1,-3.0164635E-1,3.5119414E-1,-3.0462092E-1,4.251671E-1,8.327193E-1,-8.894063E-1,8.7317187E-1,-8.1414056E-1,-8.905961E-1,6.6367227E-1,7.882857E-2,3.2171926E-1,-8.493518E-1,5.1964545E-1,4.6167326E-1,-1.2164899E0,-3.4030965E-1,5.3576255E-1,1.7336853E-1,1.006188E0,-3.0394056E-1,4.8337525E-1,9.4028467E-1,-2.5639364E-1,-2.942571E-1,3.2430118E-1,-3.0523056E-1,4.518095E-1,7.524245E-1,-7.9514366E-1,6.15892E-2,5.2629834E-1,-9.810548E-1,6.0946554E-1,8.1226987E-1,-5.886613E-1,2.0438498E-1,-7.790024E-2,-4.6929854E-1,-3.0751753E-1,5.566676E-2,-2.166387E-1,1.8512006E-1,-1.7183816E-1,-1.8786307E-2,9.0228245E-2,3.2145834E-1,-2.948405E-1,1.8879914E-1,-1.8368559E-1,3.105968E-2,3.1946468E-1,1.4307447E-1,-1.6549367E-2,1.7318079E-1,-2.650962E-1,1.8598344E-2,2.7296275E-1,-2.6620057E-1,-3.221949E-2,5.1976886E-2,1.275543E-3,2.9176927E-1,2.4241418E-2,-3.0288756E-1,-6.719849E-2,3.034008E-1,-2.5560185E-2,3.228288E-2,2.8676036E-1,-2.2146882E-1,-1.7815886E-2],"categories":[],"categories_nodes":[],"categories_segments":[],"categories_sizes":[],"default_left":[0,0,0,0,0,0,0,0,0,0,0,0,0,0,0,0,0,0,0,0,0,0,0,0,0,0,0,0,0,0,0,0,0,0,0,0,0,0,0,0,0,0,0,0,0,0,0,0,0,0,0,0,0,0,0,0,0,0,0,0,0,0,0,0,0,0,0,0,0,0,0,0,0,0,0,0,0,0,0,0,0,0,0,0,0,0,0],"id":7,"left_children":[1,3,5,7,9,11,13,-1,15,17,19,21,23,25,27,-1,29,-1,31,33,35,37,39,41,43,45,-1,47,49,51,53,55,57,59,61,-1,63,65,-1,-1,67,-1,69,71,73,75,77,79,81,83,85,-1,-1,-1,-1,-1,-1,-1,-1,-1,-1,-1,-1,-1,-1,-1,-1,-1,-1,-1,-1,-1,-1,-1,-1,-1,-1,-1,-1,-1,-1,-1,-1,-1,-1,-1,-1],"loss_changes":[7.5189995E3,2.2601885E3,9.700548E2,9.3441797E2,4.69633E2,1.9274133E2,3.28739E2,0E0,1.1658151E2,4.9657913E1,4.309189E2,6.849211E1,2.3884879E2,3.5351318E2,2.9323284E1,0E0,1.0210645E2,0E0,2.4725933E0,1.21487915E2,2.9101334E1,1.7942009E1,5.8059845E0,8.603293E1,1.656306E1,3.1132734E0,0E0,2.239795E1,6.4658656E0,8.7055E1,9.8492813E-1,9.425063E-1,2.5189586E0,6.7159314E0,1.104704E2,0E0,2.7207804E0,1.4772194E1,0E0,0E0,2.837243E-1,0E0,7.8954954E0,1.263517E1,3.83893E-1,2.5205765E0,2.9025655E0,2.0330963E0,2.881243E0,1.4176159E0,3.0734277E-1,0E0,0E0,0E0,0E0,0E0,0E0,0E0,0E0,0E0,0E0,0E0,0E0,0E0,0E0,0E0,0E0,0E0,0E0,0E0,0E0,0E0,0E0,0E0,0E0,0E0,0E0,0E0,0E0,0E0,0E0,0E0,0E0,0E0,0E0,0E0,0E0],"parents":[2147483647,0,0,1,1,2,2,3,3,4,4,5,5,6,6,8,8,9,9,10,10,11,11,12,12,13,13,14,14,16,16,18,18,19,19,20,20,21,21,22,22,23,23,24,24,25,25,27,27,28,28,29,29,30,30,31,31,32,32,33,33,34,34,36,36,37,37,40,40,42,42,43,43,44,44,45,45,46,46,47,47,48,48,49,49,50,50],"right_children":[2,4,6,8,10,12,14,-1,16,18,20,22,24,26,28,-1,30,-1,32,34,36,38,40,42,44,46,-1,48,50,52,54,56,58,60,62,-1,64,66,-1,-1,68,-1,70,72,74,76,78,80,82,84,86,-1,-1,-1,-1,-1,-1,-1,-1,-1,-1,-1,-1,-1,-1,-1,-1,-1,-1,-1,-1,-1,-1,-1,-1,-1,-1,-1,-1,-1,-1,-1,-1,-1,-1,-1,-1],"split_conditions":[3.9407883E0,9.8580986E1,1E0,4.7992798E1,1E0,1E0,1E0,-3.0586156E-1,1E0,4.7992798E1,1E0,1E0,9.8580986E1,4.0402355E0,9.8580986E1,-3.0164635E-1,1E0,-3.0462092E-1,1.0388904E2,1.0388904E2,4.7992798E1,1E0,4.7992798E1,4.7992798E1,1E0,1.0388904E2,3.2171926E-1,5.8973557E1,1E0,1E0,1E0,7.0389664E-1,1E0,4.756312E-1,1E0,-3.0394056E-1,1E0,4.0402355E0,-2.5639364E-1,-2.942571E-1,1.523397E0,-3.0523056E-1,1E0,1.0388904E2,1.0680099E1,4.5769107E-1,1E0,4.7992798E1,1E0,1.1008417E2,7.713462E0,2.0438498E-1,-7.790024E-2,-4.6929854E-1,-3.0751753E-1,5.566676E-2,-2.166387E-1,1.8512006E-1,-1.7183816E-1,-1.8786307E-2,9.0228245E-2,3.2145834E-1,-2.948405E-1,1.8879914E-1,-1.8368559E-1,3.105968E-2,3.1946468E-1,1.4307447E-1,-1.6549367E-2,1.7318079E-1,-2.650962E-1,1.8598344E-2,2.7296275E-1,-2.6620057E-1,-3.221949E-2,5.1976886E-2,1.275543E-3,2.9176927E-1,2.4241418E-2,-3.0288756E-1,-6.719849E-2,3.034008E-1,-2.5560185E-2,3.228288E-2,2.8676036E-1,-2.2146882E-1,-1.7815886E-2],"split_indices":[2,0,6,1,6,3,5,0,6,1,4,4,0,2,0,0,5,0,0,0,1,5,1,1,5,0,0,1,4,4,3,2,5,1,5,0,5,2,0,0,0,0,5,0,1,1,4,1,4,0,2,0,0,0,0,0,0,0,0,0,0,0,0,0,0,0,0,0,0,0,0,0,0,0,0,0,0,0,0,0,0,0,0,0,0,0,0],"split_type":[0,0,0,0,0,0,0,0,0,0,0,0,0,0,0,0,0,0,0,0,0,0,0,0,0,0,0,0,0,0,0,0,0,0,0,0,0,0,0,0,0,0,0,0,0,0,0,0,0,0,0,0,0,0,0,0,0,0,0,0,0,0,0,0,0,0,0,0,0,0,0,0,0,0,0,0,0,0,0,0,0,0,0,0,0,0,0],"sum_hessian":[1.9101457E4,1.476449E4,4.336968E3,1.327113E4,1.4933605E3,7.9859247E2,3.5383752E3,1.2615792E4,6.5533826E2,2.6321234E2,1.2301482E3,1.7471178E2,6.238807E2,3.408448E3,1.2992711E2,7.0039444E1,5.8529877E2,2.3715923E2,2.605311E1,1.0626986E3,1.6744957E2,1.4679724E2,2.7914534E1,5.0157495E2,1.2230573E2,4.0678424E2,3.0016638E3,1.12464615E2,1.74625E1,5.4742566E2,3.787313E1,3.0267382E0,2.3026373E1,2.2176694E2,8.409317E2,1.5384546E2,1.360411E1,1.4174721E2,5.0500274E0,2.4469566E1,3.4449675E0,4.5849542E2,4.307953E1,1.1574802E2,6.5577154E0,3.9278915E2,1.3995091E1,1.0345236E2,9.012248E0,1.4026274E1,3.4362266E0,4.197037E2,1.2772197E2,1.0898466E1,2.6974663E1,1.4894273E0,1.5373108E0,2.1866024E1,1.1603485E0,7.792401E1,1.4384293E2,8.146318E2,2.6299908E1,1.2380494E1,1.2236154E0,1.8608715E1,1.231385E2,2.2737167E0,1.1712507E0,3.9898968E1,3.1805596E0,2.1753197E1,9.399482E1,5.526664E0,1.0310519E0,1.3257393E2,2.6021524E2,6.4004397E0,7.5946517E0,9.936871E1,4.0836515E0,5.4205527E0,3.5916953E0,2.670592E0,1.1355681E1,2.3713205E0,1.0649061E0],"tree_param":{"num_deleted":"0","num_feature":"7","num_nodes":"87","size_leaf_vector":"1"}},{"base_weights":[-4.7617555E-1,-8.13567E-1,6.3222617E-1,-9.4705E-1,3.1444347E-1,-3.1369203E-1,8.4412754E-1,-3.0430242E-1,1.6748703E-1,-8.4876704E-1,5.5394256E-1,5.6164294E-1,-5.6359565E-1,4.7978677E-2,9.8384565E-1,-2.9869506E-1,2.8754136E-1,-3.026416E-1,3.2420254E-1,7.669115E-1,-8.726739E-1,8.171302E-1,-7.7146065E-1,-8.731609E-1,5.721981E-1,3.778748E-2,6.9594765E-1,3.156823E-1,-6.373038E-1,-2.3062946E-1,5.654115E-1,-2.1430377E-2,7.0710033E-1,1.251873E-1,9.866475E-1,-9.8668957E-1,6.718065E-1,5.7399534E-2,9.649485E-1,-2.8899622E-1,2.626881E-1,-3.034563E-1,3.6290365E-1,-4.7410738E-1,7.09805E-1,4.690445E-2,-5.672593E-1,3.3643925E-1,1.0928318E-1,-8.251689E-1,5.6738794E-1,-2.8698733E-1,-4.829649E-2,2.7941957E-1,-7.62128E-2,4.000795E-2,-2.5772798E-1,1.7943256E-2,2.4736014E-1,6.879623E-2,-1.1964185E-2,3.1533128E-1,-2.898547E-1,-3.0173454E-1,-8.094929E-2,-3.3148061E-3,2.3403E-1,-9.665681E-2,1.3824716E-1,3.1266162E-1,-2.3978744E-1,-2.544855E-2,1.244866E-1,-6.0079653E-2,2.0225178E-1,4.995134E-2,-2.2429022E-1,1.0728257E-2,2.750837E-1,3.04798E-2,-1.7552324E-2,-2.5409004E-1,3.532275E-2,2.1049951E-1,-1.20729454E-1,-3.0017465E-1,8.649258E-2,2.6454473E-1,-1.4869332E-1],"categories":[],"categories_nodes":[],"categories_segments":[],"categories_sizes":[],"default_left":[0,0,0,0,0,0,0,0,0,0,0,0,0,0,0,0,0,0,0,0,0,0,0,0,0,0,0,0,0,0,0,0,0,0,0,0,0,0,0,0,0,0,0,0,0,0,0,0,0,0,0,0,0,0,0,0,0,0,0,0,0,0,0,0,0,0,0,0,0,0,0,0,0,0,0,0,0,0,0,0,0,0,0,0,0,0,0,0,0],"id":8,"left_children":[1,3,5,7,9,11,13,-1,15,17,19,21,23,25,27,-1,29,-1,31,33,35,37,39,41,43,45,47,-1,49,51,53,55,57,59,61,63,65,67,69,-1,71,-1,73,75,77,79,81,-1,83,85,87,-1,-1,-1,-1,-1,-1,-1,-1,-1,-1,-1,-1,-1,-1,-1,-1,-1,-1,-1,-1,-1,-1,-1,-1,-1,-1,-1,-1,-1,-1,-1,-1,-1,-1,-1,-1,-1,-1],"loss_changes":[5.4302607E3,1.6763818E3,6.795239E2,7.4670215E2,3.2881958E2,1.3614731E2,3.0795288E2,0E0,7.95485E1,3.8177597E1,2.9780646E2,4.7770092E1,1.7051222E2,2.7103868E0,2.6196802E2,0E0,7.432396E1,0E0,3.3189998E0,1.1994458E2,2.3115051E1,1.3042633E1,4.771615E0,6.541858E1,1.5334423E1,2.2830873E0,1.4650459E0,0E0,2.2199287E1,8.97596E0,1.00919136E2,1.941672E0,8.532038E-1,3.762169E0,8.083777E1,1.3592148E0,7.007899E-1,3.2203429E0,1.4132065E1,0E0,2.65362E-1,0E0,6.9763026E0,2.351059E0,1.2876717E1,2.3347244E0,1.2778234E0,0E0,1.4286761E0,1.6592373E1,4.964851E0,0E0,0E0,0E0,0E0,0E0,0E0,0E0,0E0,0E0,0E0,0E0,0E0,0E0,0E0,0E0,0E0,0E0,0E0,0E0,0E0,0E0,0E0,0E0,0E0,0E0,0E0,0E0,0E0,0E0,0E0,0E0,0E0,0E0,0E0,0E0,0E0,0E0,0E0],"parents":[2147483647,0,0,1,1,2,2,3,3,4,4,5,5,6,6,8,8,9,9,10,10,11,11,12,12,13,13,14,14,16,16,18,18,19,19,20,20,21,21,22,22,23,23,24,24,25,25,26,26,28,28,29,29,30,30,31,31,32,32,33,33,34,34,35,35,36,36,37,37,38,38,40,40,42,42,43,43,44,44,45,45,46,46,48,48,49,49,50,50],"right_children":[2,4,6,8,10,12,14,-1,16,18,20,22,24,26,28,-1,30,-1,32,34,36,38,40,42,44,46,48,-1,50,52,54,56,58,60,62,64,66,68,70,-1,72,-1,74,76,78,80,82,-1,84,86,88,-1,-1,-1,-1,-1,-1,-1,-1,-1,-1,-1,-1,-1,-1,-1,-1,-1,-1,-1,-1,-1,-1,-1,-1,-1,-1,-1,-1,-1,-1,-1,-1,-1,-1,-1,-1,-1,-1],"split_conditions":[3.9407883E0,9.8580986E1,1E0,4.7992798E1,1E0,1E0,4.0402355E0,-3.0430242E-1,1E0,4.7992798E1,1E0,1E0,9.8580986E1,4.7992798E1,1E0,-2.9869506E-1,5.8973557E1,-3.026416E-1,5.8973557E1,1.0388904E2,5.8973557E1,4.0402355E0,4.7992798E1,4.7992798E1,4.0402355E0,1E0,7.722523E1,3.156823E-1,9.8580986E1,2.2255199E-1,1E0,4.1578302E2,1.0388904E2,1.1465856E0,1E0,4.7992798E1,1.1008417E2,1.2140291E0,1E0,-2.8899622E-1,7.9229456E-1,-3.034563E-1,5.8973557E1,3.5256016E-1,1.0388904E2,1E0,1.1008417E2,3.3643925E-1,1E0,4.7992798E1,1E0,-2.8698733E-1,-4.829649E-2,2.7941957E-1,-7.62128E-2,4.000795E-2,-2.5772798E-1,1.7943256E-2,2.4736014E-1,6.879623E-2,-1.1964185E-2,3.1533128E-1,-2.898547E-1,-3.0173454E-1,-8.094929E-2,-3.3148061E-3,2.3403E-1,-9.665681E-2,1.3824716E-1,3.1266162E-1,-2.3978744E-1,-2.544855E-2,1.244866E-1,-6.0079653E-2,2.0225178E-1,4.995134E-2,-2.2429022E-1,1.0728257E-2,2.750837E-1,3.04798E-2,-1.7552324E-2,-2.5409004E-1,3.532275E-2,2.1049951E-1,-1.20729454E-1,-3.0017465E-1,8.649258E-2,2.6454473E-1,-1.4869332E-1],"split_indices":[2,0,6,1,6,3,2,0,6,1,4,4,0,1,5,0,1,0,1,0,1,2,1,1,2,5,1,0,0,2,4,0,0,2,5,1,0,0,5,0,0,0,1,1,0,4,0,0,4,1,4,0,0,0,0,0,0,0,0,0,0,0,0,0,0,0,0,0,0,0,0,0,0,0,0,0,0,0,0,0,0,0,0,0,0,0,0,0,0],"split_type":[0,0,0,0,0,0,0,0,0,0,0,0,0,0,0,0,0,0,0,0,0,0,0,0,0,0,0,0,0,0,0,0,0,0,0,0,0,0,0,0,0,0,0,0,0,0,0,0,0,0,0,0,0,0,0,0,0,0,0,0,0,0,0,0,0,0,0,0,0,0,0,0,0,0,0,0,0,0,0,0,0,0,0,0,0,0,0,0,0],"sum_hessian":[1.4518388E4,1.1130569E4,3.3878184E3,9.952948E3,1.1776207E3,6.199424E2,2.767876E3,9.386329E3,5.666196E2,2.0063301E2,9.769878E2,1.3740562E2,4.8253674E2,4.1342435E2,2.3544517E3,5.23301E1,5.1428955E2,1.7666858E2,2.3964441E1,8.5048724E2,1.26500496E2,1.1563197E2,2.1773647E1,3.7936932E2,1.0316742E2,4.0806467E2,5.3596888E0,2.2594321E3,9.501954E1,1.7957991E2,3.3470966E2,1.309128E1,1.0873162E1,2.1733746E2,6.3314984E2,1.18140366E2,8.360131E0,1.9059835E1,9.6572136E1,1.8424025E1,3.349621E0,3.413425E2,3.8026833E1,1.1706986E1,9.1460434E1,4.0291592E2,5.148742E0,2.5781353E0,2.7815537E0,8.247331E1,1.25462265E1,1.4603625E1,1.6497627E2,2.3127869E2,1.03430954E2,1.1759128E1,1.3321525E0,1.9014951E0,8.971667E0,1.330275E2,8.430996E1,6.1336633E2,1.9783499E1,1.1468295E2,3.4574106E0,1.2672594E0,7.092872E0,9.923761E0,9.136074E0,9.291271E1,3.6594272E0,1.155452E0,2.194169E0,1.3663146E1,2.4363686E1,3.6200151E0,8.086971E0,2.1775312E1,6.968512E1,2.6529785E2,1.3761807E2,3.4880283E0,1.6607141E0,1.1171229E0,1.6644307E0,7.133659E1,1.1136718E1,9.813904E0,2.7323225E0],"tree_param":{"num_deleted":"0","num_feature":"7","num_nodes":"89","size_leaf_vector":"1"}},{"base_weights":[-4.617271E-1,-7.955935E-1,5.92147E-1,-9.316977E-1,2.8955534E-1,-2.965971E-1,7.9128563E-1,-3.0315408E-1,1.3640039E-1,-8.194545E-1,5.0778294E-1,5.2075607E-1,-5.320136E-1,3.3844586E-2,9.684312E-1,2.3764402E-1,-3.3547816E-1,-3.009293E-1,2.51828E-1,6.984059E-1,-8.469117E-1,7.588568E-1,-7.245387E-1,-8.4775573E-1,4.7893962E-1,2.0789135E-2,4.182414E-1,3.1135502E-1,-6.033667E-1,-2.9490808E-1,3.3715013E-1,-2.9379908E-2,6.073933E-1,8.980013E-2,9.720887E-1,-2.997209E-1,3.1956214E-1,4.038557E-2,9.442482E-1,-2.831473E-1,2.1223192E-1,-3.0201843E-1,2.836649E-1,5.890355E-1,-8.071473E-1,-3.1998324E-1,3.5890732E-2,7.8567326E-1,-1.1648283E-4,-7.809207E-1,5.8112645E-1,-3.8450383E-2,1.9713251E-1,-1.0584534E-1,1.2620266E-1,1.4546059E-2,2.1743216E-1,-2.4844011E-2,5.6185286E-2,3.108839E-1,-2.8431174E-1,1.4288625E-1,-1.8117216E-1,2.713598E-1,-2.5538826E-2,3.0732408E-1,-2.2619961E-1,1.3100943E-1,-1.7049909E-2,-3.2446814E-1,1.20116346E-1,-9.7335406E-2,2.2086008E-1,-2.6715025E-1,-4.5531116E-2,-2.4732415E-1,8.06756E-2,5.8333788E-2,-6.147064E-3,2.7025285E-1,5.8996793E-2,1.8218644E-1,-5.8423415E-2,-2.9523557E-1,6.319175E-2,2.7709454E-1,-1.2756191E-1],"categories":[],"categories_nodes":[],"categories_segments":[],"categories_sizes":[],"default_left":[0,0,0,0,0,0,0,0,0,0,0,0,0,0,0,0,0,0,0,0,0,0,0,0,0,0,0,0,0,0,0,0,0,0,0,0,0,0,0,0,0,0,0,0,0,0,0,0,0,0,0,0,0,0,0,0,0,0,0,0,0,0,0,0,0,0,0,0,0,0,0,0,0,0,0,0,0,0,0,0,0,0,0,0,0,0,0],"id":9,"left_children":[1,3,5,7,9,11,13,-1,15,17,19,21,23,25,27,29,-1,-1,31,33,35,37,39,41,43,45,47,-1,49,-1,51,53,55,57,59,-1,61,63,65,-1,67,-1,69,71,73,75,77,79,81,83,85,-1,-1,-1,-1,-1,-1,-1,-1,-1,-1,-1,-1,-1,-1,-1,-1,-1,-1,-1,-1,-1,-1,-1,-1,-1,-1,-1,-1,-1,-1,-1,-1,-1,-1,-1,-1],"loss_changes":[3.9064248E3,1.2454404E3,4.7301086E2,6.307905E2,2.2799469E2,9.450699E1,2.928214E2,0E0,6.577232E1,3.0745575E1,2.0365457E2,3.3169388E1,1.219258E2,2.072636E0,1.9363037E2,5.8392673E1,0E0,0E0,2.3656716E0,1.1482507E2,1.7615845E1,1.23284645E1,3.9327726E0,5.2528687E1,1.3394716E1,2.0810976E0,2.0861688E0,0E0,1.6321825E1,0E0,6.599838E1,2.195851E0,6.4817905E-1,3.6350958E0,5.9615356E1,0E0,2.0247984E0,2.2557964E0,1.0813553E1,0E0,2.8228426E-1,0E0,6.2595754E0,1.1615339E1,2.809391E-1,5.3212514E0,3.4545944E0,3.1298542E-1,9.86637E-1,1.3513454E1,3.980588E0,0E0,0E0,0E0,0E0,0E0,0E0,0E0,0E0,0E0,0E0,0E0,0E0,0E0,0E0,0E0,0E0,0E0,0E0,0E0,0E0,0E0,0E0,0E0,0E0,0E0,0E0,0E0,0E0,0E0,0E0,0E0,0E0,0E0,0E0,0E0,0E0],"parents":[2147483647,0,0,1,1,2,2,3,3,4,4,5,5,6,6,8,8,9,9,10,10,11,11,12,12,13,13,14,14,15,15,18,18,19,19,20,20,21,21,22,22,23,23,24,24,25,25,26,26,28,28,30,30,31,31,32,32,33,33,34,34,36,36,37,37,38,38,40,40,42,42,43,43,44,44,45,45,46,46,47,47,48,48,49,49,50,50],"right_children":[2,4,6,8,10,12,14,-1,16,18,20,22,24,26,28,30,-1,-1,32,34,36,38,40,42,44,46,48,-1,50,-1,52,54,56,58,60,-1,62,64,66,-1,68,-1,70,72,74,76,78,80,82,84,86,-1,-1,-1,-1,-1,-1,-1,-1,-1,-1,-1,-1,-1,-1,-1,-1,-1,-1,-1,-1,-1,-1,-1,-1,-1,-1,-1,-1,-1,-1,-1,-1,-1,-1,-1,-1],"split_conditions":[3.9407883E0,9.8580986E1,1E0,4.7992798E1,1E0,1E0,4.0402355E0,-3.0315408E-1,1E0,4.7992798E1,1E0,1E0,9.8580986E1,1.1008417E2,1E0,1E0,-3.3547816E-1,-3.009293E-1,5.8973557E1,1.0388904E2,4.7992798E1,4.0402355E0,4.7992798E1,4.7992798E1,1E0,4.863193E-2,1E0,3.1135502E-1,1.0388904E2,-2.9490808E-1,5.8973557E1,1.7945975E2,1.0388904E2,4.756312E-1,1E0,-2.997209E-1,1E0,4.863193E-2,1E0,-2.831473E-1,6.2826886E0,-3.0201843E-1,4.0402355E0,4.0402355E0,1.162991E1,9.956081E0,3.3815634E-1,1E0,1.1308122E-1,4.7992798E1,1E0,-3.8450383E-2,1.9713251E-1,-1.0584534E-1,1.2620266E-1,1.4546059E-2,2.1743216E-1,-2.4844011E-2,5.6185286E-2,3.108839E-1,-2.8431174E-1,1.4288625E-1,-1.8117216E-1,2.713598E-1,-2.5538826E-2,3.0732408E-1,-2.2619961E-1,1.3100943E-1,-1.7049909E-2,-3.2446814E-1,1.20116346E-1,-9.7335406E-2,2.2086008E-1,-2.6715025E-1,-4.5531116E-2,-2.4732415E-1,8.06756E-2,5.8333788E-2,-6.147064E-3,2.7025285E-1,5.8996793E-2,1.8218644E-1,-5.8423415E-2,-2.9523557E-1,6.319175E-2,2.7709454E-1,-1.2756191E-1],"split_indices":[2,0,6,1,6,3,2,0,5,1,4,4,0,0,5,6,0,0,1,0,1,2,1,1,5,1,4,0,0,0,1,0,0,1,5,0,5,1,5,0,2,0,2,2,1,0,1,5,1,1,4,0,0,0,0,0,0,0,0,0,0,0,0,0,0,0,0,0,0,0,0,0,0,0,0,0,0,0,0,0,0,0,0,0,0,0,0],"split_type":[0,0,0,0,0,0,0,0,0,0,0,0,0,0,0,0,0,0,0,0,0,0,0,0,0,0,0,0,0,0,0,0,0,0,0,0,0,0,0,0,0,0,0,0,0,0,0,0,0,0,0,0,0,0,0,0,0,0,0,0,0,0,0,0,0,0,0,0,0,0,0,0,0,0,0,0,0,0,0,0,0,0,0,0,0,0,0],"sum_hessian":[1.1100091E4,8.429787E3,2.670304E3,7.4904434E3,9.393432E2,4.8871375E2,2.1815903E3,6.975751E3,5.146925E2,1.539961E2,7.8534717E2,1.0901334E2,3.7970038E2,4.137337E2,1.7678566E3,4.7701117E2,3.7681355E1,1.3151495E2,2.2481133E1,6.888952E2,9.6451965E1,9.184347E1,1.7169874E1,2.8945795E2,9.024244E1,4.011629E2,1.2570805E1,1.6934065E3,7.445004E1,3.5284664E1,4.417265E2,1.3065398E1,9.415733E0,2.1410484E2,4.7479034E2,8.544925E1,1.1002711E1,1.9087822E1,7.2755646E1,1.3906919E1,3.2629561E0,2.5389429E2,3.5563675E1,8.362563E1,6.6168027E0,1.6166729E1,3.849962E2,6.2253036E0,6.3455005E0,6.504117E1,9.408874E0,1.8022424E2,2.6150226E2,7.727786E0,5.337612E0,1.8795142E0,7.536219E0,7.732944E1,1.367754E2,4.5987402E2,1.4916301E1,9.820312E0,1.1824E0,1.6336789E0,1.7454144E1,6.9854935E1,2.9007049E0,1.4392487E0,1.8237076E0,2.1500463E0,3.3413628E1,1.1435855E1,7.218978E1,5.5519247E0,1.0648777E0,8.492481E0,7.674248E0,1.0034785E2,2.8464832E2,4.7643404E0,1.4609632E0,1.0253366E0,5.3201637E0,5.398555E1,1.1055617E1,7.080927E0,2.327947E0],"tree_param":{"num_deleted":"0","num_feature":"7","num_nodes":"87","size_leaf_vector":"1"}},{"base_weights":[-4.4517007E-1,-7.74467E-1,5.4951495E-1,-9.137134E-1,2.6321667E-1,-2.8068128E-1,7.346367E-1,-3.02303E-1,9.976086E-2,-7.8219384E-1,4.5903262E-1,4.862918E-1,-5.018491E-1,2.4523564E-2,9.558884E-1,3.02272E-1,-3.6078045E-1,-2.993232E-1,2.0163965E-1,6.267512E-1,-8.2537913E-1,6.974955E-1,-6.2983555E-1,-7.6696795E-1,5.984036E-1,-1.976686E-2,1.3543199E-1,3.0820808E-1,-5.5986995E-1,-1.04949586E-1,6.840147E-1,6.7944074E-1,-3.0864778E-1,2.86802E-1,-1.893093E-1,6.42345E-2,9.607873E-1,-9.644825E-1,5.4200613E-1,4.0872272E-2,9.2408866E-1,-2.762213E-1,3.6469382E-1,-9.246472E-1,2.0102626E-1,7.4234277E-1,-7.431323E-1,1.9510986E-2,-3.3532023E-1,2.4220927E-1,-3.6797982E-1,-7.392362E-1,4.778489E-1,-1.7236078E-1,-1.6023524E-2,2.6049954E-1,-2.963344E-1,2.8674525E-1,-3.5580713E-1,2.2676354E-3,2.1395415E-1,1.4078417E-2,3.0294198E-1,3.075764E-1,-2.7791512E-1,-2.9771653E-1,-9.566177E-2,-1.82121E-2,1.9738118E-1,2.0958883E-1,-2.5961569E-2,3.027598E-1,-2.1184556E-1,2.2064793E-1,-1.3695441E-2,-2.9852188E-1,-6.445815E-2,1.0981227E-1,-3.03191E-1,-6.962154E-2,3.040711E-1,-2.58124E-1,-2.8363692E-2,-8.063715E-3,8.902033E-2,-1.836439E-1,7.485811E-2,3.053624E-1,4.8971977E-2,-1.4789914E-1,2.4078926E-1,-2.95012E-1,4.60805E-2,2.3195799E-1,-1.1359194E-1],"categories":[],"categories_nodes":[],"categories_segments":[],"categories_sizes":[],"default_left":[0,0,0,0,0,0,0,0,0,0,0,0,0,0,0,0,0,0,0,0,0,0,0,0,0,0,0,0,0,0,0,0,0,0,0,0,0,0,0,0,0,0,0,0,0,0,0,0,0,0,0,0,0,0,0,0,0,0,0,0,0,0,0,0,0,0,0,0,0,0,0,0,0,0,0,0,0,0,0,0,0,0,0,0,0,0,0,0,0,0,0,0,0,0,0],"id":10,"left_children":[1,3,5,7,9,11,13,-1,15,17,19,21,23,25,27,29,31,-1,33,35,37,39,41,43,45,47,49,-1,51,53,55,57,-1,59,-1,61,63,65,67,69,71,-1,73,75,77,79,81,83,85,87,89,91,93,-1,-1,-1,-1,-1,-1,-1,-1,-1,-1,-1,-1,-1,-1,-1,-1,-1,-1,-1,-1,-1,-1,-1,-1,-1,-1,-1,-1,-1,-1,-1,-1,-1,-1,-1,-1,-1,-1,-1,-1,-1,-1],"loss_changes":[2.7995657E3,9.279929E2,3.269555E2,5.3921924E2,1.5602542E2,6.612256E1,2.731499E2,0E0,4.499312E1,2.5720184E1,1.3862196E2,2.1049883E1,8.853228E1,2.0366402E0,1.441864E2,5.211969E1,1.0315854E2,0E0,1.7735455E0,1.065943E2,1.4688869E1,1.0971703E1,4.5127773E0,3.7389236E1,1.198107E1,3.684817E0,6.447708E0,0E0,1.1584356E1,3.9109342E0,5.4149277E1,3.1171694E1,0E0,2.5023172E0,0E0,3.4309504E0,4.426889E1,9.079437E-1,5.651884E-1,1.7390862E0,8.339096E0,0E0,6.3971084E-1,1.0272522E1,7.360718E0,1.4494656E1,3.9293122E-1,3.4142654E0,5.4802685E0,5.8486986E0,3.4831712E0,1.1450813E1,2.6958356E0,0E0,0E0,0E0,0E0,0E0,0E0,0E0,0E0,0E0,0E0,0E0,0E0,0E0,0E0,0E0,0E0,0E0,0E0,0E0,0E0,0E0,0E0,0E0,0E0,0E0,0E0,0E0,0E0,0E0,0E0,0E0,0E0,0E0,0E0,0E0,0E0,0E0,0E0,0E0,0E0,0E0,0E0],"parents":[2147483647,0,0,1,1,2,2,3,3,4,4,5,5,6,6,8,8,9,9,10,10,11,11,12,12,13,13,14,14,15,15,16,16,18,18,19,19,20,20,21,21,22,22,23,23,24,24,25,25,26,26,28,28,29,29,30,30,31,31,33,33,35,35,36,36,37,37,38,38,39,39,40,40,42,42,43,43,44,44,45,45,46,46,47,47,48,48,49,49,50,50,51,51,52,52],"right_children":[2,4,6,8,10,12,14,-1,16,18,20,22,24,26,28,30,32,-1,34,36,38,40,42,44,46,48,50,-1,52,54,56,58,-1,60,-1,62,64,66,68,70,72,-1,74,76,78,80,82,84,86,88,90,92,94,-1,-1,-1,-1,-1,-1,-1,-1,-1,-1,-1,-1,-1,-1,-1,-1,-1,-1,-1,-1,-1,-1,-1,-1,-1,-1,-1,-1,-1,-1,-1,-1,-1,-1,-1,-1,-1,-1,-1,-1,-1,-1],"split_conditions":[3.9407883E0,9.8580986E1,1E0,4.7992798E1,1E0,1.8834883E0,4.0402355E0,-3.02303E-1,1E0,4.7992798E1,1E0,1E0,1.0388904E2,2.5571122E0,1E0,5.8973557E1,1E0,-2.993232E-1,1E0,1.0388904E2,5.8973557E1,4.0402355E0,4.7992798E1,4.7992798E1,1E0,1.7355264E0,3.3928787E1,3.0820808E-1,9.8580986E1,2.287167E-1,1E0,1E0,-3.0864778E-1,5.8973557E1,-1.893093E-1,4.7992798E1,1E0,4.7992798E1,1.1008417E2,4.866869E-1,1E0,-2.762213E-1,6.2826886E0,9.8580986E1,1E0,4.0402355E0,9.611348E0,1.1479871E0,1.2943164E1,2.9478407E0,4.073128E1,4.7992798E1,1E0,-1.7236078E-1,-1.6023524E-2,2.6049954E-1,-2.963344E-1,2.8674525E-1,-3.5580713E-1,2.2676354E-3,2.1395415E-1,1.4078417E-2,3.0294198E-1,3.075764E-1,-2.7791512E-1,-2.9771653E-1,-9.566177E-2,-1.82121E-2,1.9738118E-1,2.0958883E-1,-2.5961569E-2,3.027598E-1,-2.1184556E-1,2.2064793E-1,-1.3695441E-2,-2.9852188E-1,-6.445815E-2,1.0981227E-1,-3.03191E-1,-6.962154E-2,3.040711E-1,-2.58124E-1,-2.8363692E-2,-8.063715E-3,8.902033E-2,-1.836439E-1,7.485811E-2,3.053624E-1,4.8971977E-2,-1.4789914E-1,2.4078926E-1,-2.95012E-1,4.60805E-2,2.3195799E-1,-1.1359194E-1],"split_indices":[2,0,6,1,6,0,2,0,4,1,4,4,0,1,5,1,3,0,5,0,1,2,1,1,5,1,0,0,0,2,5,5,0,1,0,1,5,1,0,0,5,0,2,0,5,2,2,1,0,1,1,1,4,0,0,0,0,0,0,0,0,0,0,0,0,0,0,0,0,0,0,0,0,0,0,0,0,0,0,0,0,0,0,0,0,0,0,0,0,0,0,0,0,0,0],"split_type":[0,0,0,0,0,0,0,0,0,0,0,0,0,0,0,0,0,0,0,0,0,0,0,0,0,0,0,0,0,0,0,0,0,0,0,0,0,0,0,0,0,0,0,0,0,0,0,0,0,0,0,0,0,0,0,0,0,0,0,0,0,0,0,0,0,0,0,0,0,0,0,0,0,0,0,0,0,0,0,0,0,0,0,0,0,0,0,0,0,0,0,0,0,0,0],"sum_hessian":[8.544772E3,6.419708E3,2.1250647E3,5.660277E3,7.594311E2,3.873665E2,1.7376982E3,5.1800225E3,4.8025443E2,1.1933547E2,6.4009564E2,8.64329E1,3.009336E2,4.130652E2,1.324633E3,3.3381262E2,1.464418E2,9.787721E1,2.1458265E1,5.666185E2,7.3477066E1,7.299517E1,1.343773E1,2.4274438E2,5.8189194E1,2.957725E2,1.1729269E2,1.2652935E3,5.933961E1,1.6186705E2,1.7194557E2,5.7261772E1,8.918002E1,2.0061968E1,1.3962972E0,2.1155399E2,3.5506458E2,6.695992E1,6.5171423E0,1.9030071E1,5.39651E1,1.0454084E1,2.983646E0,2.0878035E2,3.396404E1,5.295416E1,5.235033E0,2.6386646E2,3.1906054E1,9.7195656E1,2.0097034E1,5.0839764E1,8.49985E0,1.500464E1,1.4686241E2,1.5530377E2,1.6641788E1,5.0297592E1,6.9641833E0,1.2737602E1,7.324365E0,2.0878235E2,2.7716358E0,3.437776E2,1.1287004E1,6.3670685E1,3.2892377E0,1.1281852E0,5.388957E0,2.360538E0,1.6669535E1,5.164956E1,2.3155391E0,1.1511024E0,1.8325436E0,1.8956918E2,1.9211159E1,3.0507208E1,3.4568307E0,1.1561732E1,4.139243E1,4.1567836E0,1.0782497E0,2.2681474E2,3.70517E1,2.1624052E1,1.02820015E1,7.8824005E0,8.9313255E1,1.868084E1,1.4161952E0,3.984356E1,1.0996203E1,6.392698E0,2.1071522E0],"tree_param":{"num_deleted":"0","num_feature":"7","num_nodes":"95","size_leaf_vector":"1"}},{"base_weights":[-4.271465E-1,-7.53429E-1,5.035035E-1,-8.9826906E-1,2.3561557E-1,-2.6045585E-1,6.721932E-1,-3.0166686E-1,7.860805E-2,-7.454915E-1,4.0798968E-1,4.3839014E-1,-4.719534E-1,1.7298434E-2,9.450957E-1,-2.93155E-1,1.6363056E-1,-2.9767942E-1,1.5768825E-1,5.527415E-1,-7.8973967E-1,6.3879216E-1,-6.164147E-1,-7.936045E-1,3.4554878E-1,6.044118E-3,3.7408933E-1,3.058857E-1,-5.1631516E-1,2.335623E-1,-3.1277633E-1,2.5455523E-1,-1.7316878E-1,4.713605E-2,9.5152473E-1,-2.9555026E-1,1.97278E-1,3.6214773E-2,9.07579E-1,-2.6854798E-1,1.472421E-1,-9.497009E-1,5.050262E-1,-1.2644137E-1,5.4572517E-1,1.3124718E-2,-6.068764E-1,7.1519786E-1,2.5352927E-2,-6.7902863E-1,5.029064E-1,-1.9867718E-2,1.5578619E-1,5.328904E-3,2.638321E-1,1.8605141E-2,-2.2812076E-1,3.050388E-1,-2.7041674E-1,1.5393227E-1,-7.21281E-2,-8.0326654E-2,1.0356449E-1,2.9896453E-1,-1.9793846E-1,-4.0426407E-2,8.9255534E-2,-2.9962865E-1,-1.066161E-1,-3.238851E-1,2.1138254E-1,-1.0978556E-1,2.94109E-1,2.0499742E-1,-2.0414959E-1,-1.2506378E-3,7.2982125E-2,-2.3230882E-1,-8.6575095E-4,2.556541E-1,4.67074E-2,6.639845E-2,-1.476548E-1,-2.8711706E-1,3.3556655E-2,2.5278038E-1,-9.579528E-2],"categories":[],"categories_nodes":[],"categories_segments":[],"categories_sizes":[],"default_left":[0,0,0,0,0,0,0,0,0,0,0,0,0,0,0,0,0,0,0,0,0,0,0,0,0,0,0,0,0,0,0,0,0,0,0,0,0,0,0,0,0,0,0,0,0,0,0,0,0,0,0,0,0,0,0,0,0,0,0,0,0,0,0,0,0,0,0,0,0,0,0,0,0,0,0,0,0,0,0,0,0,0,0,0,0,0,0],"id":11,"left_children":[1,3,5,7,9,11,13,-1,15,17,19,21,23,25,27,-1,29,-1,31,33,35,37,39,41,43,45,47,-1,49,51,-1,53,-1,55,57,-1,59,61,63,-1,65,67,69,71,73,75,77,79,81,83,85,-1,-1,-1,-1,-1,-1,-1,-1,-1,-1,-1,-1,-1,-1,-1,-1,-1,-1,-1,-1,-1,-1,-1,-1,-1,-1,-1,-1,-1,-1,-1,-1,-1,-1,-1,-1],"loss_changes":[2.0065905E3,7.010388E2,2.2127512E2,4.4734082E2,1.0612349E2,4.617904E1,2.511997E2,0E0,3.8151833E1,2.1075912E1,9.2819595E1,1.5778384E1,6.318617E1,1.6620109E0,1.0858093E2,0E0,3.3355995E1,0E0,1.6422353E0,9.59274E1,1.1356243E1,9.952488E0,2.7135963E0,3.5346344E1,6.5175734E0,1.7561026E0,1.4875597E0,0E0,8.435019E0,3.1886145E1,0E0,2.8331163E0,0E0,2.5819845E0,3.3093567E1,0E0,1.5606469E0,1.9765083E0,6.5969543E0,0E0,2.1392643E-1,4.132202E0,6.8042774E0,5.962257E0,8.583235E0,1.5898225E0,4.65266E-1,3.549192E-1,8.4887373E-1,9.45447E0,2.3060474E0,0E0,0E0,0E0,0E0,0E0,0E0,0E0,0E0,0E0,0E0,0E0,0E0,0E0,0E0,0E0,0E0,0E0,0E0,0E0,0E0,0E0,0E0,0E0,0E0,0E0,0E0,0E0,0E0,0E0,0E0,0E0,0E0,0E0,0E0,0E0,0E0],"parents":[2147483647,0,0,1,1,2,2,3,3,4,4,5,5,6,6,8,8,9,9,10,10,11,11,12,12,13,13,14,14,16,16,18,18,19,19,20,20,21,21,22,22,23,23,24,24,25,25,26,26,28,28,29,29,31,31,33,33,34,34,36,36,37,37,38,38,40,40,41,41,42,42,43,43,44,44,45,45,46,46,47,47,48,48,49,49,50,50],"right_children":[2,4,6,8,10,12,14,-1,16,18,20,22,24,26,28,-1,30,-1,32,34,36,38,40,42,44,46,48,-1,50,52,-1,54,-1,56,58,-1,60,62,64,-1,66,68,70,72,74,76,78,80,82,84,86,-1,-1,-1,-1,-1,-1,-1,-1,-1,-1,-1,-1,-1,-1,-1,-1,-1,-1,-1,-1,-1,-1,-1,-1,-1,-1,-1,-1,-1,-1,-1,-1,-1,-1,-1,-1],"split_conditions":[3.9407883E0,9.8580986E1,1E0,4.7992798E1,1E0,1E0,4.0402355E0,-3.0166686E-1,1E0,4.7992798E1,1E0,1E0,9.8580986E1,1.1008417E2,1E0,-2.93155E-1,1E0,-2.9767942E-1,4.1578302E2,1.0388904E2,4.7992798E1,4.0402355E0,4.7992798E1,5.8973557E1,1.0388904E2,1E0,1E0,3.058857E-1,1.0388904E2,5.8973557E1,-3.1277633E-1,2.0417851E2,-1.7316878E-1,1E0,1E0,-2.9555026E-1,1.7945975E2,1.2140291E0,1E0,-2.6854798E-1,7.9229456E-1,4.7992798E1,4.0402355E0,6.927384E0,1E0,1.4849252E1,9.125781E0,1E0,1.392815E0,4.7992798E1,1E0,-1.9867718E-2,1.5578619E-1,5.328904E-3,2.638321E-1,1.8605141E-2,-2.2812076E-1,3.050388E-1,-2.7041674E-1,1.5393227E-1,-7.21281E-2,-8.0326654E-2,1.0356449E-1,2.9896453E-1,-1.9793846E-1,-4.0426407E-2,8.9255534E-2,-2.9962865E-1,-1.066161E-1,-3.238851E-1,2.1138254E-1,-1.0978556E-1,2.94109E-1,2.0499742E-1,-2.0414959E-1,-1.2506378E-3,7.2982125E-2,-2.3230882E-1,-8.6575095E-4,2.556541E-1,4.67074E-2,6.639845E-2,-1.476548E-1,-2.8711706E-1,3.3556655E-2,2.5278038E-1,-9.579528E-2],"split_indices":[2,0,6,1,6,3,2,0,6,1,4,4,0,0,5,0,5,0,0,0,1,2,1,1,0,5,4,0,0,1,0,0,0,5,5,0,0,0,5,0,0,1,2,1,5,1,1,5,1,1,4,0,0,0,0,0,0,0,0,0,0,0,0,0,0,0,0,0,0,0,0,0,0,0,0,0,0,0,0,0,0,0,0,0,0,0,0],"split_type":[0,0,0,0,0,0,0,0,0,0,0,0,0,0,0,0,0,0,0,0,0,0,0,0,0,0,0,0,0,0,0,0,0,0,0,0,0,0,0,0,0,0,0,0,0,0,0,0,0,0,0,0,0,0,0,0,0,0,0,0,0,0,0,0,0,0,0,0,0,0,0,0,0,0,0,0,0,0,0,0,0,0,0,0,0,0,0],"sum_hessian":[6.605881E3,4.8912256E3,1.7146553E3,4.2665107E3,6.24715E2,3.1003403E2,1.4046212E3,3.8442776E3,4.222329E2,9.285941E1,5.3185565E2,7.17801E1,2.3825394E2,4.1346844E2,9.9115283E2,3.068611E1,3.915468E2,7.285485E1,2.000456E1,4.749892E2,5.686643E1,6.0651363E1,1.1128734E1,1.7100157E2,6.725236E1,4.0181097E2,1.1657453E1,9.433499E2,4.780294E1,3.7085263E2,2.0694197E1,1.8252401E1,1.7521595E0,2.0993587E2,2.6505334E2,4.7469437E1,9.396993E0,1.9058954E1,4.1592407E1,8.026683E0,3.1020503E0,1.5289247E2,1.81091E1,2.0137968E1,4.7114388E1,3.9818958E2,3.6213925E0,5.3619533E0,6.295499E0,4.150988E1,6.2930617E0,1.8134756E2,1.8950505E2,1.3982383E1,4.270019E0,2.0704372E2,2.892139E0,2.564701E2,8.583242E0,5.3583584E0,4.0386343E0,9.674961E0,9.383994E0,3.970293E1,1.889478E0,1.1143104E0,1.98774E0,1.4060489E2,1.2287586E1,1.5324403E0,1.657666E1,1.710569E1,3.0322778E0,4.2758972E1,4.3554163E0,3.7127377E2,2.691581E1,2.6143553E0,1.007037E0,3.8871746E0,1.4747788E0,4.9814973E0,1.3140016E0,3.0557539E1,1.095234E1,4.4357047E0,1.8573568E0],"tree_param":{"num_deleted":"0","num_feature":"7","num_nodes":"87","size_leaf_vector":"1"}},{"base_weights":[-4.0405923E-1,-7.2378707E-1,4.531453E-1,-8.73469E-1,2.0598605E-1,-2.3734586E-1,6.054702E-1,-3.011852E-1,5.3944364E-2,-6.9467103E-1,3.5513133E-1,3.879227E-1,-4.2927638E-1,1.2356972E-2,9.3472505E-1,2.4609534E-1,-4.0965235E-1,-2.9585835E-1,1.20563865E-1,4.7771296E-1,-7.485668E-1,5.6874514E-1,-5.600101E-1,-7.5255764E-1,2.7909055E-1,9.3786575E-2,-3.034553E-2,3.0414033E-1,-4.618856E-1,-4.3334253E-2,6.4290994E-1,5.7864314E-1,-3.06399E-1,1.9990736E-1,-1.8135951E-1,3.2104038E-2,9.4338435E-1,-9.2520803E-1,4.2128792E-1,2.5563177E-2,8.8727117E-1,-2.5939304E-1,1.1746914E-1,-2.9844853E-1,1.16161786E-1,-3.6987245E-1,4.3441433E-1,-6.092056E-1,1.364729E-1,-5.20019E-1,2.8391436E-2,-7.053289E-1,1.6567548E-1,-3.902199E-2,5.1812083E-2,-2.8182024E-1,2.568494E-1,2.338747E-1,-2.9266047E-1,-8.9331055E-3,1.863642E-1,1.3525057E-1,8.502041E-4,3.0300504E-1,-2.6163927E-1,-2.9305053E-1,-8.4940106E-2,2.098388E-1,-1.6943415E-1,1.7733517E-1,-2.6071196E-2,2.9491013E-1,-1.839361E-1,7.757009E-2,-3.93536E-2,7.6538324E-2,-2.6006186E-1,1.22135274E-1,-1.5327907E-1,-2.189972E-2,2.347706E-1,9.328921E-2,-2.8536564E-1,-1.1530409E-2,8.471875E-2,2.3492489E-2,-1.8245615E-1,3.262213E-1,5.6014437E-4,-2.8848204E-1,7.824381E-2,3.094467E-1,-3.639759E-2],"categories":[],"categories_nodes":[],"categories_segments":[],"categories_sizes":[],"default_left":[0,0,0,0,0,0,0,0,0,0,0,0,0,0,0,0,0,0,0,0,0,0,0,0,0,0,0,0,0,0,0,0,0,0,0,0,0,0,0,0,0,0,0,0,0,0,0,0,0,0,0,0,0,0,0,0,0,0,0,0,0,0,0,0,0,0,0,0,0,0,0,0,0,0,0,0,0,0,0,0,0,0,0,0,0,0,0,0,0,0,0,0,0],"id":12,"left_children":[1,3,5,7,9,11,13,-1,15,17,19,21,23,25,27,29,31,-1,33,35,37,39,41,43,45,47,49,-1,51,53,55,57,-1,59,-1,61,63,65,67,69,71,-1,73,-1,75,77,79,81,83,85,87,89,91,-1,-1,-1,-1,-1,-1,-1,-1,-1,-1,-1,-1,-1,-1,-1,-1,-1,-1,-1,-1,-1,-1,-1,-1,-1,-1,-1,-1,-1,-1,-1,-1,-1,-1,-1,-1,-1,-1,-1,-1],"loss_changes":[1.4217249E3,5.259236E2,1.4839484E2,3.938291E2,7.0721146E1,3.0824303E1,2.2555249E2,0E0,3.5938587E1,1.7913464E1,6.134333E1,1.0692874E1,4.5080547E1,1.4400876E0,8.2493286E1,3.2765327E1,7.208236E1,0E0,1.3067559E0,8.428371E1,9.781626E0,8.857431E0,2.2066083E0,2.848835E1,6.42333E0,4.357278E0,7.834982E0,0E0,6.302188E0,3.1287122E0,4.139225E1,1.5079359E1,0E0,1.8891587E0,0E0,2.5562022E0,2.4912125E1,1.0427208E0,2.2189753E0,1.3236016E0,5.246971E0,0E0,1.7580196E-1,0E0,4.3594484E0,1.5822488E0,8.994481E0,2.9193954E0,3.4589128E0,1.5865903E0,6.8440127E0,7.5205517E0,3.1382318E0,0E0,0E0,0E0,0E0,0E0,0E0,0E0,0E0,0E0,0E0,0E0,0E0,0E0,0E0,0E0,0E0,0E0,0E0,0E0,0E0,0E0,0E0,0E0,0E0,0E0,0E0,0E0,0E0,0E0,0E0,0E0,0E0,0E0,0E0,0E0,0E0,0E0,0E0,0E0,0E0],"parents":[2147483647,0,0,1,1,2,2,3,3,4,4,5,5,6,6,8,8,9,9,10,10,11,11,12,12,13,13,14,14,15,15,16,16,18,18,19,19,20,20,21,21,22,22,23,23,24,24,25,25,26,26,28,28,29,29,30,30,31,31,33,33,35,35,36,36,37,37,38,38,39,39,40,40,42,42,44,44,45,45,46,46,47,47,48,48,49,49,50,50,51,51,52,52],"right_children":[2,4,6,8,10,12,14,-1,16,18,20,22,24,26,28,30,32,-1,34,36,38,40,42,44,46,48,50,-1,52,54,56,58,-1,60,-1,62,64,66,68,70,72,-1,74,-1,76,78,80,82,84,86,88,90,92,-1,-1,-1,-1,-1,-1,-1,-1,-1,-1,-1,-1,-1,-1,-1,-1,-1,-1,-1,-1,-1,-1,-1,-1,-1,-1,-1,-1,-1,-1,-1,-1,-1,-1,-1,-1,-1,-1,-1,-1],"split_conditions":[3.9407883E0,9.8580986E1,1E0,4.7992798E1,1E0,1E0,4.0402355E0,-3.011852E-1,1E0,4.7992798E1,1E0,1E0,9.8580986E1,4.5769107E-1,1E0,5.8973557E1,1E0,-2.9585835E-1,1E0,1.0388904E2,5.8973557E1,4.0402355E0,4.7992798E1,4.7992798E1,4.0402355E0,1.1119335E0,6.5151745E-1,3.0414033E-1,4.7992798E1,2.0127499E1,1E0,1E0,-3.06399E-1,5.8973557E1,-1.8135951E-1,1.7214309E-1,1E0,4.7992798E1,1E0,4.866869E-1,1E0,-2.5939304E-1,1.523397E0,-2.9844853E-1,1E0,1.6665967E-1,1.0388904E2,4.1621017E-1,1.7158486E-1,1.9889548E0,6.8803525E-1,9.8580986E1,2.0418942E0,-3.902199E-2,5.1812083E-2,-2.8182024E-1,2.568494E-1,2.338747E-1,-2.9266047E-1,-8.9331055E-3,1.863642E-1,1.3525057E-1,8.502041E-4,3.0300504E-1,-2.6163927E-1,-2.9305053E-1,-8.4940106E-2,2.098388E-1,-1.6943415E-1,1.7733517E-1,-2.6071196E-2,2.9491013E-1,-1.839361E-1,7.757009E-2,-3.93536E-2,7.6538324E-2,-2.6006186E-1,1.22135274E-1,-1.5327907E-1,-2.189972E-2,2.347706E-1,9.328921E-2,-2.8536564E-1,-1.1530409E-2,8.471875E-2,2.3492489E-2,-1.8245615E-1,3.262213E-1,5.6014437E-4,-2.8848204E-1,7.824381E-2,3.094467E-1,-3.639759E-2],"split_indices":[2,0,6,1,6,3,2,0,4,1,4,4,0,1,5,1,3,0,5,0,1,2,1,1,2,0,1,0,1,0,6,5,0,1,0,2,5,1,5,0,5,0,0,0,5,1,0,0,1,0,1,0,0,0,0,0,0,0,0,0,0,0,0,0,0,0,0,0,0,0,0,0,0,0,0,0,0,0,0,0,0,0,0,0,0,0,0,0,0,0,0,0,0],"split_type":[0,0,0,0,0,0,0,0,0,0,0,0,0,0,0,0,0,0,0,0,0,0,0,0,0,0,0,0,0,0,0,0,0,0,0,0,0,0,0,0,0,0,0,0,0,0,0,0,0,0,0,0,0,0,0,0,0,0,0,0,0,0,0,0,0,0,0,0,0,0,0,0,0,0,0,0,0,0,0,0,0,0,0,0,0,0,0,0,0,0,0,0,0],"sum_hessian":[5.185214E3,3.7767014E3,1.4085125E3,3.2530598E3,5.236415E2,2.5446422E2,1.1540482E3,2.8517524E3,4.0130743E2,7.387403E1,4.4976746E2,5.952461E1,1.9493962E2,4.1232733E2,7.417209E2,2.840457E2,1.1726174E2,5.4260925E1,1.9613108E1,4.0531818E2,4.4449272E1,5.032492E1,9.199687E0,1.3380975E2,6.1129868E1,1.4143259E2,2.7089474E2,7.022345E2,3.9486412E1,1.6476198E2,1.1928371E2,4.4850384E1,7.2411354E1,1.8331488E1,1.2816191E0,2.07667E2,1.9765117E2,3.8799847E1,5.6494246E0,1.9001665E1,3.1323256E1,6.1555395E0,3.0441477E0,1.04516685E2,2.9293058E1,1.1538636E1,4.9591232E1,7.3365617E0,1.3409602E2,2.8172794E1,2.4272195E2,2.8360786E1,1.1125626E1,1.1784568E2,4.6916306E1,1.3762613E1,1.05521095E2,4.015691E1,4.6934757E0,1.246516E1,5.8663282E0,1.2626871E1,1.9504015E2,1.9108183E2,6.569342E0,3.5429695E1,3.370153E0,4.6330686E0,1.0163561E0,2.4459608E0,1.6555704E1,2.9768118E1,1.5551382E0,1.9166387E0,1.1275091E0,2.6313711E1,2.9793487E0,1.483097E0,1.0055539E1,2.0501657E1,2.9089573E1,2.012585E0,5.323977E0,6.1325756E1,7.277027E1,3.6326575E0,2.4540136E1,4.953444E0,2.3776852E2,2.241871E1,5.9420753E0,2.1239982E0,9.001628E0],"tree_param":{"num_deleted":"0","num_feature":"7","num_nodes":"93","size_leaf_vector":"1"}},{"base_weights":[-3.7937003E-1,-6.943663E-1,3.9960295E-1,-8.522963E-1,1.7691882E-1,-1.1548059E-2,6.508829E-1,-3.008129E-1,4.0514648E-2,2.9904485E-1,-6.765389E-1,-2.2853366E-1,7.968479E-3,-2.0837353E-1,9.2340255E-1,1.9338857E-1,-3.907687E-1,-6.617646E-1,4.0450013E-1,-2.9370448E-1,1.4004293E-1,3.9838936E-2,-4.757899E-1,4.183646E-1,7.148867E-5,-3.5515964E-1,6.7080706E-1,3.0279428E-1,-3.9942384E-1,-2.9516747E-2,5.6920993E-1,4.802569E-1,-3.0227017E-1,-2.9006526E-1,5.305793E-2,2.3475269E-2,9.356251E-1,2.4416298E-1,-1.819975E-1,-2.3840235E-1,3.608254E-1,-7.0643497E-1,-1.1911874E-1,-2.3846847E-1,7.993312E-1,-4.9042568E-1,1.3118089E-2,5.5284154E-1,-5.844295E-1,2.9118907E-1,-6.7690927E-1,-6.5832883E-1,1.40211E-1,-1.8131988E-2,1.4888959E-1,2.3522958E-1,-2.8567016E-1,1.9551142E-1,-2.69963E-1,-2.0047177E-1,6.027722E-2,2.8594388E-3,2.6477072E-1,3.012728E-1,-2.515061E-1,-1.7774943E-2,1.8310243E-1,2.487058E-1,-1.390939E-1,-8.963832E-2,2.1920721E-1,-3.2948464E-1,-1.2807962E-1,2.1961813E-1,-1.8342452E-1,4.9555857E-2,3.0408588E-1,-1.933023E-1,8.392269E-2,2.2296196E-1,2.1700189E-3,2.5843808E-1,-1.2582253E-1,-2.2141872E-1,1.7446905E-1,-2.4118492E-1,-2.868791E-2,-2.8413728E-1,5.9927512E-2,2.5476268E-1,-2.6471524E-2],"categories":[],"categories_nodes":[],"categories_segments":[],"categories_sizes":[],"default_left":[0,0,0,0,0,0,0,0,0,0,0,0,0,0,0,0,0,0,0,0,0,0,0,0,0,0,0,0,0,0,0,0,0,0,0,0,0,0,0,0,0,0,0,0,0,0,0,0,0,0,0,0,0,0,0,0,0,0,0,0,0,0,0,0,0,0,0,0,0,0,0,0,0,0,0,0,0,0,0,0,0,0,0,0,0,0,0,0,0,0,0],"id":13,"left_children":[1,3,5,7,9,11,13,-1,15,17,19,21,23,25,27,29,31,33,35,-1,37,39,41,43,45,47,49,-1,51,53,55,57,-1,-1,59,61,63,65,-1,67,69,71,73,-1,75,77,79,81,83,-1,85,87,89,-1,-1,-1,-1,-1,-1,-1,-1,-1,-1,-1,-1,-1,-1,-1,-1,-1,-1,-1,-1,-1,-1,-1,-1,-1,-1,-1,-1,-1,-1,-1,-1,-1,-1,-1,-1,-1,-1],"loss_changes":[1.00643134E3,4.019723E2,1.2205519E2,3.3204053E2,4.6992935E1,1.9036543E0,1.718891E2,0E0,2.3640526E1,4.012957E1,1.4093243E1,2.4803803E0,1.3384651E0,2.3128153E1,6.3688354E1,2.2178593E1,5.091316E1,8.620451E0,7.184578E1,0E0,1.403533E0,1.757051E0,1.5104389E0,4.23921E0,2.6058683E0,3.210086E1,1.105098E1,0E0,4.9371114E0,2.7455165E0,3.2963387E1,9.954441E0,0E0,0E0,1.4889374E0,2.480935E0,1.889618E1,1.6898704E0,0E0,2.9388297E0,2.434935E0,7.98141E-1,4.1413608E0,0E0,7.0665264E-1,1.4309297E0,1.6987878E0,9.749141E0,2.2348267E1,0E0,3.123083E-1,6.03983E0,2.0294838E0,0E0,0E0,0E0,0E0,0E0,0E0,0E0,0E0,0E0,0E0,0E0,0E0,0E0,0E0,0E0,0E0,0E0,0E0,0E0,0E0,0E0,0E0,0E0,0E0,0E0,0E0,0E0,0E0,0E0,0E0,0E0,0E0,0E0,0E0,0E0,0E0,0E0,0E0],"parents":[2147483647,0,0,1,1,2,2,3,3,4,4,5,5,6,6,8,8,9,9,10,10,11,11,12,12,13,13,14,14,15,15,16,16,17,17,18,18,20,20,21,21,22,22,23,23,24,24,25,25,26,26,28,28,29,29,30,30,31,31,34,34,35,35,36,36,37,37,39,39,40,40,41,41,42,42,44,44,45,45,46,46,47,47,48,48,50,50,51,51,52,52],"right_children":[2,4,6,8,10,12,14,-1,16,18,20,22,24,26,28,30,32,34,36,-1,38,40,42,44,46,48,50,-1,52,54,56,58,-1,-1,60,62,64,66,-1,68,70,72,74,-1,76,78,80,82,84,-1,86,88,90,-1,-1,-1,-1,-1,-1,-1,-1,-1,-1,-1,-1,-1,-1,-1,-1,-1,-1,-1,-1,-1,-1,-1,-1,-1,-1,-1,-1,-1,-1,-1,-1,-1,-1,-1,-1,-1,-1],"split_conditions":[3.9407883E0,9.8580986E1,4.0402355E0,4.7992798E1,1E0,1E0,1E0,-3.008129E-1,1E0,1E0,4.7992798E1,1.6757531E0,2.0628255E-2,1.0388904E2,1E0,5.8973557E1,1E0,4.7992798E1,1.0388904E2,-2.9370448E-1,1E0,1.2140291E0,1.349224E2,3.9514508E0,4.863193E-2,1.8834883E0,1E0,3.0279428E-1,4.7992798E1,3.081473E0,1E0,1E0,-3.0227017E-1,-2.9006526E-1,1.0388904E2,4.7992798E1,1E0,5.8973557E1,-1.819975E-1,1.04827985E-1,3.8291574E-1,5.627687E-1,3.8291574E-1,-2.3846847E-1,8.810911E0,4.205704E1,2.3637876E-1,1E0,5.8973557E1,2.9118907E-1,9.611348E0,9.8580986E1,2.0418942E0,-1.8131988E-2,1.4888959E-1,2.3522958E-1,-2.8567016E-1,1.9551142E-1,-2.69963E-1,-2.0047177E-1,6.027722E-2,2.8594388E-3,2.6477072E-1,3.012728E-1,-2.515061E-1,-1.7774943E-2,1.8310243E-1,2.487058E-1,-1.390939E-1,-8.963832E-2,2.1920721E-1,-3.2948464E-1,-1.2807962E-1,2.1961813E-1,-1.8342452E-1,4.9555857E-2,3.0408588E-1,-1.933023E-1,8.392269E-2,2.2296196E-1,2.1700189E-3,2.5843808E-1,-1.2582253E-1,-2.2141872E-1,1.7446905E-1,-2.4118492E-1,-2.868791E-2,-2.8413728E-1,5.9927512E-2,2.5476268E-1,-2.6471524E-2],"split_indices":[2,0,2,1,4,6,6,0,4,6,1,0,1,0,5,1,3,1,0,0,5,0,0,0,1,0,5,0,1,2,5,5,0,0,0,1,5,1,0,1,1,1,1,0,0,0,0,4,1,0,2,0,0,0,0,0,0,0,0,0,0,0,0,0,0,0,0,0,0,0,0,0,0,0,0,0,0,0,0,0,0,0,0,0,0,0,0,0,0,0,0],"split_type":[0,0,0,0,0,0,0,0,0,0,0,0,0,0,0,0,0,0,0,0,0,0,0,0,0,0,0,0,0,0,0,0,0,0,0,0,0,0,0,0,0,0,0,0,0,0,0,0,0,0,0,0,0,0,0,0,0,0,0,0,0,0,0,0,0,0,0,0,0,0,0,0,0,0,0,0,0,0,0,0,0,0,0,0,0,0,0,0,0,0,0],"sum_hessian":[4.099498E3,2.9191704E3,1.1803275E3,2.4712507E3,4.479196E2,4.4809555E2,7.3223193E2,2.1148376E3,3.5641315E2,3.9241617E2,5.550341E1,3.6093784E1,4.1200177E2,1.7637033E2,5.558616E2,2.635471E2,9.286605E1,3.8288853E1,3.5412732E2,4.0355953E1,1.5147459E1,1.7710087E1,1.8383698E1,6.796923E0,4.0520483E2,1.516476E2,2.4722727E1,5.22185E2,3.367656E1,1.6600719E2,9.753991E1,3.8590702E1,5.427535E1,2.6587461E1,1.170139E1,2.0680862E2,1.473187E2,1.3884425E1,1.2630339E0,9.624524E0,8.085562E0,1.0568704E1,7.814995E0,1.3645945E0,5.4323287E0,9.550643E0,3.956542E2,3.0287106E1,1.213605E2,2.0452505E1,4.2702217E0,2.2609203E1,1.1067354E1,1.5762247E2,8.384726E0,8.589301E1,1.1646893E1,3.479595E1,3.7947497E0,1.3919895E0,1.03094015E1,2.0450052E2,2.3081188E0,1.4225035E2,5.068352E0,8.051339E0,5.833086E0,1.2099735E0,8.414551E0,2.9739523E0,5.1116095E0,3.180464E0,7.3882394E0,2.6852214E0,5.129773E0,1.8193054E0,3.6130233E0,8.096052E0,1.4545909E0,2.1617389E0,3.9349246E2,2.3076078E1,7.211027E0,1.0755579E2,1.3804698E1,3.189984E0,1.0802377E0,1.683837E1,5.770836E0,2.0348568E0,9.032497E0],"tree_param":{"num_deleted":"0","num_feature":"7","num_nodes":"91","size_leaf_vector":"1"}},{"base_weights":[-3.491206E-1,-6.58508E-1,3.4510097E-1,-8.256449E-1,1.4846978E-1,-8.500844E-3,6.21482E-1,-3.0051535E-1,2.8417533E-2,2.493314E-1,-6.3111955E-1,3.431237E-2,-9.5944926E-2,-1.6625966E-1,9.1062486E-1,-2.8794968E-1,9.795924E-2,3.8766058E-3,6.1830443E-1,-2.910734E-1,1.0784913E-1,7.6440454E-1,2.4876991E-2,-6.835721E-1,-6.6258E-2,-3.7260816E-1,3.8414943E-1,3.0171505E-1,-3.393173E-1,1.5087298E-1,-2.9106537E-1,-7.1476877E-1,1.7999485E-2,-5.684135E-1,9.276052E-1,1.9863205E-1,-1.6719197E-1,-3.4745368E-3,3.5379016E-1,-2.8869143E-2,1.5369661E-1,7.308468E-3,-8.219219E-1,-1.7749645E-1,6.921514E-2,4.6855548E-1,-6.342832E-1,4.9666944E-1,-6.245274E-1,-5.406817E-1,2.8415325E-1,8.5220076E-2,-8.7692834E-2,-4.9755637E-2,-2.520276E-1,-2.390922E-3,1.18866585E-1,-2.8516862E-1,4.4906147E-2,2.9967788E-1,-2.4006839E-1,-1.2921925E-2,1.6072069E-1,1.58224E-2,-6.482503E-2,1.4361456E-1,-1.9026339E-2,-1.2609367E-1,-3.0628157E-1,3.528121E-3,-1.200274E-1,1.7542017E-1,-3.7196603E-2,2.052645E-1,-3.1788725E-1,-2.9584727E-1,6.097288E-2,4.6963144E-2,2.8554243E-1,-2.2757125E-1,-2.4566518E-2,-2.4899542E-1,8.655827E-2,2.5664687E-1,-1.0968887E-1],"categories":[],"categories_nodes":[],"categories_segments":[],"categories_sizes":[],"default_left":[0,0,0,0,0,0,0,0,0,0,0,0,0,0,0,0,0,0,0,0,0,0,0,0,0,0,0,0,0,0,0,0,0,0,0,0,0,0,0,0,0,0,0,0,0,0,0,0,0,0,0,0,0,0,0,0,0,0,0,0,0,0,0,0,0,0,0,0,0,0,0,0,0,0,0,0,0,0,0,0,0,0,0,0,0],"id":14,"left_children":[1,3,5,7,9,11,13,-1,15,17,19,21,23,25,27,-1,29,31,33,-1,35,37,39,41,43,45,47,-1,49,51,-1,53,55,57,59,61,-1,-1,-1,63,65,-1,67,69,71,73,75,77,79,81,83,-1,-1,-1,-1,-1,-1,-1,-1,-1,-1,-1,-1,-1,-1,-1,-1,-1,-1,-1,-1,-1,-1,-1,-1,-1,-1,-1,-1,-1,-1,-1,-1,-1,-1],"loss_changes":[7.0938257E2,3.0820972E2,9.9541565E1,2.8461084E2,3.1041233E1,1.6797942E0,1.3036334E2,0E0,2.239069E1,3.1559351E1,1.1451397E1,2.056968E0,2.5269709E0,1.7672691E1,5.006491E1,0E0,1.7329594E1,2.1470888E0,5.162532E1,0E0,1.0250787E0,1.2407279E0,2.0714626E0,7.0402E-1,2.1441758E0,2.5117949E1,5.14257E0,0E0,3.9606261E0,1.723278E1,0E0,1.4116144E-1,2.038351E0,8.210809E0,1.4454544E1,1.1687841E0,0E0,0E0,0E0,3.2428384E0,6.2437515E0,0E0,4.0120125E-2,3.2890801E0,6.497206E0,9.732461E0,2.5672646E1,5.8669357E0,2.809055E-1,5.820676E0,3.30441E0,0E0,0E0,0E0,0E0,0E0,0E0,0E0,0E0,0E0,0E0,0E0,0E0,0E0,0E0,0E0,0E0,0E0,0E0,0E0,0E0,0E0,0E0,0E0,0E0,0E0,0E0,0E0,0E0,0E0,0E0,0E0,0E0,0E0,0E0],"parents":[2147483647,0,0,1,1,2,2,3,3,4,4,5,5,6,6,8,8,9,9,10,10,11,11,12,12,13,13,14,14,16,16,17,17,18,18,20,20,21,21,22,22,23,23,24,24,25,25,26,26,28,28,29,29,31,31,32,32,33,33,34,34,35,35,39,39,40,40,42,42,43,43,44,44,45,45,46,46,47,47,48,48,49,49,50,50],"right_children":[2,4,6,8,10,12,14,-1,16,18,20,22,24,26,28,-1,30,32,34,-1,36,38,40,42,44,46,48,-1,50,52,-1,54,56,58,60,62,-1,-1,-1,64,66,-1,68,70,72,74,76,78,80,82,84,-1,-1,-1,-1,-1,-1,-1,-1,-1,-1,-1,-1,-1,-1,-1,-1,-1,-1,-1,-1,-1,-1,-1,-1,-1,-1,-1,-1,-1,-1,-1,-1,-1,-1],"split_conditions":[3.9407883E0,9.8580986E1,4.0402355E0,4.7992798E1,1E0,1E0,1E0,-3.0051535E-1,1E0,1.0388904E2,4.7992798E1,1.2711731E-2,1E0,9.8580986E1,1E0,-2.8794968E-1,1E0,1E0,1E0,-2.910734E-1,1E0,2.528724E1,2.5571122E0,1.9173883E-1,1.069426E0,1E0,1E0,3.0171505E-1,5.8973557E1,1E0,-2.9106537E-1,4.0719685E-1,1.4849252E1,4.7992798E1,1E0,5.8973557E1,-1.6719197E-1,-3.4745368E-3,3.5379016E-1,1.0147791E0,5.328219E0,7.308468E-3,2.6083868E0,3.3815634E-1,1.981618E0,1E0,4.7992798E1,1.0388904E2,9.611348E0,9.8580986E1,1E0,8.5220076E-2,-8.7692834E-2,-4.9755637E-2,-2.520276E-1,-2.390922E-3,1.18866585E-1,-2.8516862E-1,4.4906147E-2,2.9967788E-1,-2.4006839E-1,-1.2921925E-2,1.6072069E-1,1.58224E-2,-6.482503E-2,1.4361456E-1,-1.9026339E-2,-1.2609367E-1,-3.0628157E-1,3.528121E-3,-1.200274E-1,1.7542017E-1,-3.7196603E-2,2.052645E-1,-3.1788725E-1,-2.9584727E-1,6.097288E-2,4.6963144E-2,2.8554243E-1,-2.2757125E-1,-2.4566518E-2,-2.4899542E-1,8.655827E-2,2.5664687E-1,-1.0968887E-1],"split_indices":[2,0,2,1,4,4,6,0,6,0,1,1,6,0,5,0,5,6,6,0,5,0,1,1,1,3,5,0,1,4,0,2,1,1,5,1,0,0,0,1,1,0,1,1,1,5,1,0,2,0,4,0,0,0,0,0,0,0,0,0,0,0,0,0,0,0,0,0,0,0,0,0,0,0,0,0,0,0,0,0,0,0,0,0,0],"split_type":[0,0,0,0,0,0,0,0,0,0,0,0,0,0,0,0,0,0,0,0,0,0,0,0,0,0,0,0,0,0,0,0,0,0,0,0,0,0,0,0,0,0,0,0,0,0,0,0,0,0,0,0,0,0,0,0,0,0,0,0,0,0,0,0,0,0,0,0,0,0,0,0,0,0,0,0,0,0,0,0,0,0,0,0,0],"sum_hessian":[3.300723E3,2.2832285E3,1.0174943E3,1.891457E3,3.917715E2,4.4681216E2,5.706821E2,1.568022E3,3.2343512E2,3.4749368E2,4.427783E1,3.00361E2,1.4645117E2,1.5334192E2,4.173402E2,2.0421738E1,3.030134E2,2.0928195E2,1.3821175E2,3.0135271E1,1.4142557E1,2.8113227E0,2.9754968E2,5.9836626E0,1.4046751E2,1.1176444E2,4.157748E1,3.8801648E2,2.932376E1,2.8952985E2,1.3483535E1,3.077396E0,2.0620454E2,2.8401974E1,1.0980977E2,1.306128E1,1.0812771E0,1.3181158E0,1.4932067E0,2.1050052E2,8.704915E1,1.1128972E0,4.8707657E0,7.696254E1,6.3504967E1,2.6331215E1,8.543323E1,3.786155E1,3.7159314E0,2.226541E1,7.0583496E0,2.2289891E2,6.663095E1,1.0038631E0,2.0735328E0,1.9387198E2,1.2332564E1,1.8325863E1,1.0076111E1,1.0586189E2,3.947875E0,8.115003E0,4.9462767E0,1.4709648E2,6.3404037E1,3.4379395E1,5.2669758E1,2.6450593E0,2.225706E0,4.2108116E1,3.4854424E1,1.6759552E1,4.6745415E1,2.3558819E1,2.7723956E0,6.0033546E1,2.5399681E1,2.2437744E1,1.5423804E1,2.6607423E0,1.055189E0,1.6505772E1,5.7596374E0,3.5874367E0,3.4709127E0],"tree_param":{"num_deleted":"0","num_feature":"7","num_nodes":"85","size_leaf_vector":"1"}},{"base_weights":[-3.171091E-1,-6.155034E-1,2.9182917E-1,-7.916512E-1,1.2112965E-1,-6.620762E-3,5.914036E-1,-3.002652E-1,1.6998537E-2,2.0293519E-1,-5.803943E-1,-1.8396848E-4,-4.395565E-1,-1.5244874E-1,8.9774877E-1,-2.8311107E-1,7.178453E-2,1.8966043E-3,5.96163E-1,-2.8778672E-1,8.124726E-2,5.1991594E-1,-5.163021E-3,-5.999344E-1,-6.7078713E-3,-3.4145862E-1,3.1759897E-1,3.007997E-1,-2.838554E-1,-1.1150581E-1,3.469293E-1,1.4096782E-2,-2.1754006E-1,-5.106108E-1,9.1872793E-1,2.7998433E-1,-2.4669771E-1,-1.9674905E-2,2.306857E-1,-2.4926704E-1,1.3988267E-2,-2.3026471E-1,1.4150017E-3,3.3111373E-1,-6.03373E-1,4.151352E-1,-5.666222E-1,-5.720417E-1,1.7234544E-1,7.0630334E-2,-4.5742556E-2,2.3901959E-1,-6.102631E-2,2.7447207E-2,-3.1004969E-2,-2.802352E-1,3.3275392E-2,2.9807585E-1,-2.27515E-1,1.5766293E-1,-1.4512695E-1,-2.0757887E-1,6.0538623E-2,-1.0801473E-1,2.2180891E-1,8.442349E-2,-5.6376425E-3,2.1778494E-1,-1.3814528E-1,-2.9379654E-1,3.227026E-2,3.4159154E-2,2.7912927E-1,-2.121438E-1,-2.1036224E-2,-2.7303556E-1,2.4192404E-2,2.3882557E-1,-1.5481017E-2],"categories":[],"categories_nodes":[],"categories_segments":[],"categories_sizes":[],"default_left":[0,0,0,0,0,0,0,0,0,0,0,0,0,0,0,0,0,0,0,0,0,0,0,0,0,0,0,0,0,0,0,0,0,0,0,0,0,0,0,0,0,0,0,0,0,0,0,0,0,0,0,0,0,0,0,0,0,0,0,0,0,0,0,0,0,0,0,0,0,0,0,0,0,0,0,0,0,0,0],"id":15,"left_children":[1,3,5,7,9,11,13,-1,15,17,19,21,23,25,27,-1,29,31,33,-1,35,37,39,41,-1,43,45,-1,47,49,51,53,-1,55,57,59,61,-1,-1,63,65,-1,-1,67,69,71,73,75,77,-1,-1,-1,-1,-1,-1,-1,-1,-1,-1,-1,-1,-1,-1,-1,-1,-1,-1,-1,-1,-1,-1,-1,-1,-1,-1,-1,-1,-1,-1],"loss_changes":[4.913483E2,2.3553522E2,7.954625E1,2.4779614E2,2.026249E1,1.2446164E0,1.0131424E2,0E0,1.59635E1,2.4909218E1,9.332882E0,1.1449859E0,4.2437482E-1,1.169113E1,3.9289505E1,0E0,1.4494676E1,1.8685493E0,3.852462E1,0E0,1.0052974E0,6.6176355E-1,2.0507112E0,4.786898E-1,0E0,1.6664133E1,3.5044703E0,0E0,3.5743883E0,2.4920235E0,2.8592976E1,1.8913116E0,0E0,6.604855E0,1.1160904E1,2.0195498E0,1.3281434E0,0E0,0E0,3.761153E0,3.5732117E0,0E0,0E0,8.723644E0,1.8179401E1,5.283848E0,2.4267268E-1,3.6996794E0,1.5781486E0,0E0,0E0,0E0,0E0,0E0,0E0,0E0,0E0,0E0,0E0,0E0,0E0,0E0,0E0,0E0,0E0,0E0,0E0,0E0,0E0,0E0,0E0,0E0,0E0,0E0,0E0,0E0,0E0,0E0,0E0],"parents":[2147483647,0,0,1,1,2,2,3,3,4,4,5,5,6,6,8,8,9,9,10,10,11,11,12,12,13,13,14,14,16,16,17,17,18,18,20,20,21,21,22,22,23,23,25,25,26,26,28,28,29,29,30,30,31,31,33,33,34,34,35,35,36,36,39,39,40,40,43,43,44,44,45,45,46,46,47,47,48,48],"right_children":[2,4,6,8,10,12,14,-1,16,18,20,22,24,26,28,-1,30,32,34,-1,36,38,40,42,-1,44,46,-1,48,50,52,54,-1,56,58,60,62,-1,-1,64,66,-1,-1,68,70,72,74,76,78,-1,-1,-1,-1,-1,-1,-1,-1,-1,-1,-1,-1,-1,-1,-1,-1,-1,-1,-1,-1,-1,-1,-1,-1,-1,-1,-1,-1,-1,-1],"split_conditions":[3.9407883E0,9.8580986E1,4.0402355E0,4.7992798E1,1E0,1E0,1E0,-3.002652E-1,1E0,1.0388904E2,4.7992798E1,2.3637876E-1,1.1008417E2,9.8580986E1,1E0,-2.8311107E-1,5.8973557E1,1E0,1E0,-2.8778672E-1,1.1977819E0,3.3815634E-1,1.1627893E0,9.478449E0,-6.7078713E-3,2.2614546E0,1E0,3.007997E-1,4.7992798E1,1.1627893E0,1E0,1.1465856E0,-2.1754006E-1,4.7992798E1,1E0,2.3865253E2,1.349224E2,-1.9674905E-2,2.306857E-1,1.3394278E1,2.2057147E0,-2.3026471E-1,1.4150017E-3,1E0,4.7992798E1,1.0388904E2,9.611348E0,9.8580986E1,2.0418942E0,7.0630334E-2,-4.5742556E-2,2.3901959E-1,-6.102631E-2,2.7447207E-2,-3.1004969E-2,-2.802352E-1,3.3275392E-2,2.9807585E-1,-2.27515E-1,1.5766293E-1,-1.4512695E-1,-2.0757887E-1,6.0538623E-2,-1.0801473E-1,2.2180891E-1,8.442349E-2,-5.6376425E-3,2.1778494E-1,-1.3814528E-1,-2.9379654E-1,3.227026E-2,3.4159154E-2,2.7912927E-1,-2.121438E-1,-2.1036224E-2,-2.7303556E-1,2.4192404E-2,2.3882557E-1,-1.5481017E-2],"split_indices":[2,0,2,1,4,5,6,0,6,0,1,0,0,0,5,0,1,5,6,0,2,1,0,1,0,0,5,0,1,0,4,2,0,1,5,0,0,0,0,1,0,0,0,4,1,0,2,0,0,0,0,0,0,0,0,0,0,0,0,0,0,0,0,0,0,0,0,0,0,0,0,0,0,0,0,0,0,0,0],"split_type":[0,0,0,0,0,0,0,0,0,0,0,0,0,0,0,0,0,0,0,0,0,0,0,0,0,0,0,0,0,0,0,0,0,0,0,0,0,0,0,0,0,0,0,0,0,0,0,0,0,0,0,0,0,0,0,0,0,0,0,0,0,0,0,0,0,0,0,0,0,0,0,0,0,0,0,0,0,0,0],"sum_hessian":[2.7021296E3,1.8134735E3,8.886561E2,1.4634504E3,3.500231E2,4.4565344E2,4.4300272E2,1.1624393E3,3.0101108E2,3.1410562E2,3.5917507E1,4.4011038E2,5.54304E0,1.293715E2,3.136312E2,1.5364311E1,2.8564676E2,2.0850949E2,1.0559612E2,2.2552668E1,1.3364839E1,3.1926546E0,4.3691772E2,3.6874907E0,1.8555489E0,9.24644E1,3.69071E1,2.881934E2,2.5437796E1,1.7179716E2,1.138496E2,2.060327E2,2.4767919E0,2.3698767E1,8.1897354E1,8.412841E0,4.9519978E0,1.1725572E0,2.0200973E0,3.0910759E1,4.06007E2,2.676213E0,1.0112779E0,2.5841518E1,6.662289E1,3.371823E1,3.188867E0,1.5434042E1,1.0003753E1,1.7643173E1,1.5415399E2,6.240124E1,5.144836E1,1.2432631E2,8.170638E1,1.379559E1,9.903177E0,7.878819E1,3.1091669E0,6.6020317E0,1.8108094E0,2.21265E0,2.7393477E0,2.8367785E1,2.5429742E0,4.3505264E1,3.625017E2,1.7296993E1,8.544524E0,4.3331486E1,2.32914E1,2.2048426E1,1.16698065E1,2.154754E0,1.034113E0,9.907651E0,5.5263915E0,1.9679306E0,8.035822E0],"tree_param":{"num_deleted":"0","num_feature":"7","num_nodes":"79","size_leaf_vector":"1"}},{"base_weights":[-2.8070986E-1,-5.6256235E-1,2.4214806E-1,-7.449609E-1,9.605696E-2,-4.658279E-3,5.558377E-1,-3.0003953E-1,1.4747865E-2,-4.7951669E-1,1.6852875E-1,2.6812423E-2,-6.960482E-2,-1.3407598E-1,8.799617E-1,6.1206024E-2,-2.862593E-1,-2.8422192E-1,1.512577E-2,5.430353E-3,5.9543544E-1,6.481369E-1,1.8943585E-2,-4.986832E-2,-7.3751765E-1,-2.8374078E-2,-9.5837045E-1,2.9996288E-1,-2.3406258E-1,-2.7611026E-1,1.0506559E-1,3.25451E-1,-1.5967537E-1,4.9565214E-1,-1.08522205E-2,9.084035E-1,-5.421498E-1,-1.9534584E-3,3.021422E-1,-1.9165269E-1,4.7081873E-2,-2.564297E-1,4.992383E-3,5.6489408E-2,-3.436542E-1,-1.6030295E-1,3.0097395E-1,-3.094561E-1,-4.4742104E-1,-5.1028544E-1,1.4362587E-1,-2.0122128E-2,1.2708075E-1,2.3063773E-2,2.3722863E-1,-1.382196E-1,1.18352845E-1,2.0829506E-1,-7.111585E-2,-1.3330151E-1,1.1880154E-2,2.9632884E-1,-2.1415529E-1,-2.4272817E-1,1.4501978E-1,-1.2677526E-1,2.8383233E-2,1.3173619E-1,5.191818E-3,1.9695468E-1,-1.1837405E-1,2.3132543E-1,-1.2014461E-2,-8.585228E-2,2.7139556E-1,-1.7685008E-1,-1.8012928E-2,-2.6530093E-1,1.814992E-2,1.4901914E-1,-7.772212E-2],"categories":[],"categories_nodes":[],"categories_segments":[],"categories_sizes":[],"default_left":[0,0,0,0,0,0,0,0,0,0,0,0,0,0,0,0,0,0,0,0,0,0,0,0,0,0,0,0,0,0,0,0,0,0,0,0,0,0,0,0,0,0,0,0,0,0,0,0,0,0,0,0,0,0,0,0,0,0,0,0,0,0,0,0,0,0,0,0,0,0,0,0,0,0,0,0,0,0,0,0,0],"id":16,"left_children":[1,3,5,7,9,11,13,-1,15,17,19,21,23,25,27,29,-1,-1,31,33,35,37,39,41,43,45,47,-1,49,-1,51,53,55,57,59,61,63,-1,-1,65,67,69,71,-1,-1,73,-1,-1,75,77,79,-1,-1,-1,-1,-1,-1,-1,-1,-1,-1,-1,-1,-1,-1,-1,-1,-1,-1,-1,-1,-1,-1,-1,-1,-1,-1,-1,-1,-1,-1],"loss_changes":[3.338109E2,1.7684076E2,6.1455025E1,2.2342395E2,1.34295635E1,9.1186595E-1,7.827767E1,0E0,1.3146463E1,8.357162E0,1.983842E1,1.4575053E0,1.8825562E0,9.782593E0,3.2019257E1,1.2081485E1,0E0,0E0,1.0558946E0,1.6592764E0,2.853536E1,8.8308656E-1,1.7742944E0,1.6160301E0,1.7668052E0,1.3882812E1,1.5622139E-2,0E0,2.5701203E0,0E0,1.4689251E1,7.485807E-1,2.2688675E0,1.1372861E0,4.424933E0,8.705769E0,5.2150073E0,0E0,0E0,2.3741212E0,3.069317E0,4.0329285E0,3.9496884E0,0E0,0E0,1.2357045E1,0E0,0E0,1.4979613E-1,3.0517013E0,1.6771964E0,0E0,0E0,0E0,0E0,0E0,0E0,0E0,0E0,0E0,0E0,0E0,0E0,0E0,0E0,0E0,0E0,0E0,0E0,0E0,0E0,0E0,0E0,0E0,0E0,0E0,0E0,0E0,0E0,0E0,0E0],"parents":[2147483647,0,0,1,1,2,2,3,3,4,4,5,5,6,6,8,8,9,9,10,10,11,11,12,12,13,13,14,14,15,15,18,18,19,19,20,20,21,21,22,22,23,23,24,24,25,25,26,26,28,28,30,30,31,31,32,32,33,33,34,34,35,35,36,36,39,39,40,40,41,41,42,42,45,45,48,48,49,49,50,50],"right_children":[2,4,6,8,10,12,14,-1,16,18,20,22,24,26,28,30,-1,-1,32,34,36,38,40,42,44,46,48,-1,50,-1,52,54,56,58,60,62,64,-1,-1,66,68,70,72,-1,-1,74,-1,-1,76,78,80,-1,-1,-1,-1,-1,-1,-1,-1,-1,-1,-1,-1,-1,-1,-1,-1,-1,-1,-1,-1,-1,-1,-1,-1,-1,-1,-1,-1,-1,-1],"split_conditions":[3.9407883E0,9.8580986E1,4.0402355E0,4.7992798E1,1E0,1E0,1E0,-3.0003953E-1,1E0,4.7992798E1,1.0388904E2,1.2711731E-2,5.8973557E1,1E0,1E0,1E0,-2.862593E-1,-2.8422192E-1,7.2006965E-1,1.2905316E-1,1E0,2.528724E1,1.3451436E-1,3.238222E0,1.4499273E1,5.8973557E1,1.1008417E2,2.9996288E-1,4.7992798E1,-2.7611026E-1,5.8973557E1,6.130153E-1,2.0417851E2,3.075418E0,2.7568918E-1,1E0,5.8973557E1,-1.9534584E-3,3.021422E-1,1.3693517E1,1.9709162E-1,1.4356956E-1,3.7494862E0,5.6489408E-2,-3.436542E-1,1.0388904E2,3.0097395E-1,-3.094561E-1,9.611348E0,9.8580986E1,1E0,-2.0122128E-2,1.2708075E-1,2.3063773E-2,2.3722863E-1,-1.382196E-1,1.18352845E-1,2.0829506E-1,-7.111585E-2,-1.3330151E-1,1.1880154E-2,2.9632884E-1,-2.1415529E-1,-2.4272817E-1,1.4501978E-1,-1.2677526E-1,2.8383233E-2,1.3173619E-1,5.191818E-3,1.9695468E-1,-1.1837405E-1,2.3132543E-1,-1.2014461E-2,-8.585228E-2,2.7139556E-1,-1.7685008E-1,-1.8012928E-2,-2.6530093E-1,1.814992E-2,1.4901914E-1,-7.772212E-2],"split_indices":[2,0,2,1,6,4,6,0,5,1,0,1,1,5,5,6,0,0,2,2,4,0,1,0,0,1,0,0,1,0,1,2,0,1,2,5,1,0,0,0,1,1,0,0,0,0,0,0,2,0,4,0,0,0,0,0,0,0,0,0,0,0,0,0,0,0,0,0,0,0,0,0,0,0,0,0,0,0,0,0,0],"split_type":[0,0,0,0,0,0,0,0,0,0,0,0,0,0,0,0,0,0,0,0,0,0,0,0,0,0,0,0,0,0,0,0,0,0,0,0,0,0,0,0,0,0,0,0,0,0,0,0,0,0,0,0,0,0,0,0,0,0,0,0,0,0,0,0,0,0,0,0,0,0,0,0,0,0,0,0,0,0,0,0,0],"sum_hessian":[2.2632156E3,1.4704677E3,7.927481E2,1.1514524E3,3.1901523E2,4.442242E2,3.4852386E2,8.6170624E2,2.8974612E2,3.504779E1,2.8396744E2,2.9962442E2,1.445998E2,1.1158856E2,2.369353E2,2.7738324E2,1.2362899E1,1.754057E1,1.7507221E1,2.0620149E2,7.776594E1,2.7295713E0,2.9689487E2,1.414934E2,3.1063988E0,9.982243E1,1.1766127E1,2.1400238E2,2.2932922E1,1.1009397E1,2.6637384E2,5.9976797E0,1.15095415E1,5.682323E0,2.0051918E2,6.1145332E1,1.6620605E1,1.3144729E0,1.4150983E0,3.430839E1,2.6258646E2,2.8922031E1,1.12571365E2,1.1149229E0,1.9914759E0,8.925293E1,1.0569508E1,9.401354E0,2.3647728E0,1.3042905E1,9.8900175E0,1.7343687E2,9.293695E1,4.6688013E0,1.3288784E0,7.5672975E0,3.9422443E0,4.511479E0,1.1708443E0,2.009108E1,1.804281E2,5.8666534E1,2.4787996E0,1.3355352E1,3.2652535E0,1.8725857E1,1.5582536E1,1.7565495E1,2.4502097E2,3.3081915E0,2.561384E1,5.3557634E0,1.072156E2,8.04728E1,8.780126E0,1.3484349E0,1.0163379E0,7.547494E0,5.495411E0,5.145083E0,4.744934E0],"tree_param":{"num_deleted":"0","num_feature":"7","num_nodes":"81","size_leaf_vector":"1"}},{"base_weights":[-2.4183016E-1,-5.036778E-1,1.9713935E-1,-6.909782E-1,7.743577E-2,-2.937147E-3,5.083064E-1,-2.9981783E-1,6.983497E-3,1.0793188E-1,-2.7279082E-1,2.53729E-1,-1.1004313E-2,-9.77213E-2,8.5910964E-1,4.6300086E-1,-6.647942E-2,3.0266198E-3,3.7278226E-1,6.7397095E-2,1.9072631E-1,-2.897304E-1,3.634066E-3,-9.0197725E-3,-9.060015E-1,2.9912862E-1,-1.9936961E-1,1.2091337E-1,8.354934E-1,9.048836E-2,-6.897793E-1,8.1359066E-2,-8.6649135E-2,-3.0532992E-1,6.649407E-1,2.8660122E-1,-2.4703448E-1,-3.949245E-1,1.6228275E-1,2.0724371E-1,-2.1416346E-2,-1.10120416E-1,2.8840798E-1,-2.9616457E-1,-4.0368992E-1,2.4235429E-1,-2.9068094E-1,-3.3671087E-1,8.416237E-2,2.8513733E-1,-1.625931E-1,-1.4807523E-2,1.5790887E-1,1.0470977E-1,-2.9793555E-1,-4.5023896E-2,6.1227642E-2,-1.1240116E-1,3.0813197E-2,-2.7464405E-1,5.9620176E-2,2.9429525E-1,-1.1504287E-1,-1.29553E-2,2.3014456E-1,-3.2948453E-2,-1.5132657E-1,1.9742742E-2,1.2583318E-1,-6.319443E-2,5.0276457E-3,-1.0151743E-1,1.0263673E-1,-1.6336347E-1,-1.5424175E-2,2.6021598E-2,-2.4250309E-1],"categories":[],"categories_nodes":[],"categories_segments":[],"categories_sizes":[],"default_left":[0,0,0,0,0,0,0,0,0,0,0,0,0,0,0,0,0,0,0,0,0,0,0,0,0,0,0,0,0,0,0,0,0,0,0,0,0,0,0,0,0,0,0,0,0,0,0,0,0,0,0,0,0,0,0,0,0,0,0,0,0,0,0,0,0,0,0,0,0,0,0,0,0,0,0,0,0],"id":17,"left_children":[1,3,5,7,9,11,13,-1,15,17,-1,19,21,23,25,27,29,31,33,35,-1,37,39,41,43,-1,45,47,49,51,53,55,57,59,61,63,-1,65,-1,67,69,71,-1,-1,73,-1,75,-1,-1,-1,-1,-1,-1,-1,-1,-1,-1,-1,-1,-1,-1,-1,-1,-1,-1,-1,-1,-1,-1,-1,-1,-1,-1,-1,-1,-1,-1],"loss_changes":[2.2386203E2,1.328034E2,4.532955E1,1.9857721E2,9.071111E0,9.224074E-1,6.066137E1,0E0,9.534522E0,8.060236E0,0E0,9.2351466E-1,1.7618642E0,7.546103E0,2.6572662E1,4.930523E0,2.405272E1,1.4739982E0,1.6509869E1,2.2363317E0,0E0,2.0964074E0,2.1008196E0,9.51976E0,2.6120186E-2,0E0,2.226782E0,4.6319127E0,3.481822E0,1.2019625E1,1.5927095E1,3.211494E0,5.3752275E0,8.015214E0,1.9541176E1,1.4534917E0,0E0,5.5966425E-1,0E0,1.326605E0,2.6539474E0,9.179661E0,0E0,0E0,1.2783766E-1,0E0,4.093643E0,0E0,0E0,0E0,0E0,0E0,0E0,0E0,0E0,0E0,0E0,0E0,0E0,0E0,0E0,0E0,0E0,0E0,0E0,0E0,0E0,0E0,0E0,0E0,0E0,0E0,0E0,0E0,0E0,0E0,0E0],"parents":[2147483647,0,0,1,1,2,2,3,3,4,4,5,5,6,6,8,8,9,9,11,11,12,12,13,13,14,14,15,15,16,16,17,17,18,18,19,19,21,21,22,22,23,23,24,24,26,26,27,27,28,28,29,29,30,30,31,31,32,32,33,33,34,34,35,35,37,37,39,39,40,40,41,41,44,44,46,46],"right_children":[2,4,6,8,10,12,14,-1,16,18,-1,20,22,24,26,28,30,32,34,36,-1,38,40,42,44,-1,46,48,50,52,54,56,58,60,62,64,-1,66,-1,68,70,72,-1,-1,74,-1,76,-1,-1,-1,-1,-1,-1,-1,-1,-1,-1,-1,-1,-1,-1,-1,-1,-1,-1,-1,-1,-1,-1,-1,-1,-1,-1,-1,-1,-1,-1],"split_conditions":[3.9407883E0,9.8580986E1,4.0402355E0,4.7992798E1,1E0,5.52801E-1,1E0,-2.9981783E-1,1.3202838E0,1.0388904E2,-2.7279082E-1,2.887996E0,1.1627893E0,1E0,1E0,5.8973557E1,1E0,1.0088645E0,1E0,1.9441608E0,1.9072631E-1,1.3394278E1,2.2057147E0,5.8973557E1,1.1008417E2,2.9912862E-1,4.866869E-1,2.287167E-1,1E0,5.8973557E1,1E0,3.7508857E-1,1.5536332E0,4.7992798E1,1E0,7.0024335E-1,-2.4703448E-1,7.359563E-1,1.6228275E-1,1.72795E0,4.4348307E0,9.8580986E1,2.8840798E-1,-2.9616457E-1,9.611348E0,2.4235429E-1,1E0,-3.3671087E-1,8.416237E-2,2.8513733E-1,-1.625931E-1,-1.4807523E-2,1.5790887E-1,1.0470977E-1,-2.9793555E-1,-4.5023896E-2,6.1227642E-2,-1.1240116E-1,3.0813197E-2,-2.7464405E-1,5.9620176E-2,2.9429525E-1,-1.1504287E-1,-1.29553E-2,2.3014456E-1,-3.2948453E-2,-1.5132657E-1,1.9742742E-2,1.2583318E-1,-6.319443E-2,5.0276457E-3,-1.0151743E-1,1.0263673E-1,-1.6336347E-1,-1.5424175E-2,2.6021598E-2,-2.4250309E-1],"split_indices":[2,0,2,1,5,0,6,0,0,0,0,1,0,5,5,1,4,2,6,1,0,1,0,1,0,0,0,2,5,1,3,1,2,1,4,1,0,0,0,0,0,0,0,0,2,0,4,0,0,0,0,0,0,0,0,0,0,0,0,0,0,0,0,0,0,0,0,0,0,0,0,0,0,0,0,0,0],"split_type":[0,0,0,0,0,0,0,0,0,0,0,0,0,0,0,0,0,0,0,0,0,0,0,0,0,0,0,0,0,0,0,0,0,0,0,0,0,0,0,0,0,0,0,0,0,0,0,0,0,0,0,0,0,0,0,0,0,0,0,0,0,0,0,0,0,0,0,0,0,0,0,0,0,0,0,0,0],"sum_hessian":[1.9457252E3,1.2186478E3,7.270774E2,9.2146027E2,2.9718762E2,4.4313663E2,2.8394077E2,6.387696E2,2.8269064E2,2.8914203E2,8.045598E0,1.2575655E1,4.3056097E2,1.0436581E2,1.7957495E2,3.848631E1,2.4420435E2,2.0783253E2,8.130949E1,9.243555E0,3.3321002E0,2.0546532E1,4.1001443E2,9.495636E1,9.409452E0,1.5891628E2,2.0658678E1,2.0752426E1,1.7733885E1,1.957602E2,4.8444153E1,1.1098182E2,9.6850716E1,2.4469545E1,5.6839943E1,7.962548E0,1.2810072E0,1.8702654E1,1.8438783E0,4.4121555E1,3.6589288E2,8.679952E1,8.1568365E0,7.2688766E0,2.1405761E0,1.0649111E0,1.9593767E1,1.6750342E0,1.907739E1,1.6653938E1,1.079948E0,1.4888002E2,4.6880173E1,1.0914804E1,3.7529346E1,3.8381916E1,7.25999E1,3.8028984E1,5.882173E1,1.0700634E1,1.3768911E1,4.3723797E1,1.3116142E1,5.261719E0,2.7008288E0,5.7457023E0,1.2956951E1,2.7261492E1,1.6860062E1,6.0664597E1,3.052283E2,5.7850864E1,2.8948656E1,1.1392609E0,1.0013152E0,1.1813312E1,7.780456E0],"tree_param":{"num_deleted":"0","num_feature":"7","num_nodes":"77","size_leaf_vector":"1"}},{"base_weights":[-2.0552841E-1,-4.4653192E-1,1.576196E-1,-6.3856333E-1,6.0574286E-2,-1.9429815E-3,4.5559186E-1,-2.9958016E-1,2.2759119E-3,8.479608E-2,-2.6273745E-1,3.5193625E-3,-3.978317E-1,-7.398568E-2,8.3279884E-1,4.311934E-2,-2.8029293E-1,2.7373699E-3,3.352607E-1,-1.3624553E-1,1.5535424E-2,-5.583072E-1,-6.9335275E-3,4.9873868E-1,-2.2356267E-1,2.9822308E-1,-1.5600157E-1,-2.7156258E-1,8.1924826E-2,-5.2180916E-1,1.5009025E-2,-2.6737925E-1,6.199335E-1,3.8012227E-1,-2.1525341E-1,8.620358E-3,5.701745E-1,-2.1520734E-1,-7.942778E-3,2.4920991E-1,-3.2388762E-1,-4.837223E-1,2.0226915E-1,-3.1981295E-1,3.5988033E-1,-1.0529335E-2,1.0813135E-1,-2.2669576E-1,5.4116953E-2,7.210503E-3,-2.0881133E-1,-2.6736858E-1,4.44194E-2,2.9182172E-1,-8.520287E-2,2.8653234E-1,-3.8482152E-2,-2.6872623E-1,-3.5709668E-2,5.042859E-3,-1.209207E-1,3.458654E-1,1.587993E-2,-2.3024407E-1,9.452296E-2,-2.787443E-1,3.576822E-2,1.4634861E-1,-3.6034483E-2,-1.939633E-1,8.36968E-2,2.216121E-1,-8.3966956E-2],"categories":[],"categories_nodes":[],"categories_segments":[],"categories_sizes":[],"default_left":[0,0,0,0,0,0,0,0,0,0,0,0,0,0,0,0,0,0,0,0,0,0,0,0,0,0,0,0,0,0,0,0,0,0,0,0,0,0,0,0,0,0,0,0,0,0,0,0,0,0,0,0,0,0,0,0,0,0,0,0,0,0,0,0,0,0,0,0,0,0,0,0,0],"id":18,"left_children":[1,3,5,7,9,11,13,-1,15,17,-1,19,21,23,25,27,-1,29,31,33,35,37,-1,39,41,-1,43,-1,45,47,49,51,53,55,57,59,61,-1,-1,-1,63,65,67,69,71,-1,-1,-1,-1,-1,-1,-1,-1,-1,-1,-1,-1,-1,-1,-1,-1,-1,-1,-1,-1,-1,-1,-1,-1,-1,-1,-1,-1],"loss_changes":[1.4878952E2,9.952876E1,3.226483E1,1.7100067E2,6.4595623E0,9.592378E-1,4.7336945E1,0E0,1.0276855E1,5.65821E0,0E0,7.375324E-1,3.5012543E-1,8.623745E0,2.2209259E1,9.545568E0,0E0,1.3493483E0,1.1821293E1,1.5003166E0,1.5450646E0,3.348981E-1,0E0,5.9727135E0,8.9028225E0,0E0,1.8270261E0,0E0,8.101161E0,9.2319715E-1,1.329916E0,5.9622703E0,1.5088242E1,1.5769665E0,1.9097185E0,1.3558964E0,1.4342735E0,0E0,0E0,0E0,2.1478434E0,1.3440272E1,2.898376E0,3.2921486E0,1.5040749E0,0E0,0E0,0E0,0E0,0E0,0E0,0E0,0E0,0E0,0E0,0E0,0E0,0E0,0E0,0E0,0E0,0E0,0E0,0E0,0E0,0E0,0E0,0E0,0E0,0E0,0E0,0E0,0E0],"parents":[2147483647,0,0,1,1,2,2,3,3,4,4,5,5,6,6,8,8,9,9,11,11,12,12,13,13,14,14,15,15,17,17,18,18,19,19,20,20,21,21,23,23,24,24,26,26,28,28,29,29,30,30,31,31,32,32,33,33,34,34,35,35,36,36,40,40,41,41,42,42,43,43,44,44],"right_children":[2,4,6,8,10,12,14,-1,16,18,-1,20,22,24,26,28,-1,30,32,34,36,38,-1,40,42,-1,44,-1,46,48,50,52,54,56,58,60,62,-1,-1,-1,64,66,68,70,72,-1,-1,-1,-1,-1,-1,-1,-1,-1,-1,-1,-1,-1,-1,-1,-1,-1,-1,-1,-1,-1,-1,-1,-1,-1,-1,-1,-1],"split_conditions":[3.9407883E0,9.8580986E1,4.0402355E0,4.7992798E1,1E0,1E0,1E0,-2.9958016E-1,1E0,1.0388904E2,-2.6273745E-1,1E0,1.1008417E2,1.8834883E0,1E0,1E0,-2.8029293E-1,1E0,1E0,1.04827985E-1,4.7992798E1,9.478449E0,-6.9335275E-3,1E0,9.8580986E1,2.9822308E-1,1.0388904E2,-2.7156258E-1,5.8973557E1,1.2381346E0,3.854359E0,4.7992798E1,1E0,1.2674578E0,2.0775254E-1,2.8320349E1,5.8973557E1,-2.1520734E-1,-7.942778E-3,2.4920991E-1,4.7992798E1,4.7992798E1,6.5760503E0,5.8973557E1,1E0,-1.0529335E-2,1.0813135E-1,-2.2669576E-1,5.4116953E-2,7.210503E-3,-2.0881133E-1,-2.6736858E-1,4.44194E-2,2.9182172E-1,-8.520287E-2,2.8653234E-1,-3.8482152E-2,-2.6872623E-1,-3.5709668E-2,5.042859E-3,-1.209207E-1,3.458654E-1,1.587993E-2,-2.3024407E-1,9.452296E-2,-2.787443E-1,3.576822E-2,1.4634861E-1,-3.6034483E-2,-1.939633E-1,8.36968E-2,2.216121E-1,-8.3966956E-2],"split_indices":[2,0,2,1,5,5,6,0,5,0,0,6,0,0,5,6,0,6,